{"learner":{"attributes":{"best_iteration":"99","best_ntree_limit":"100"},"feature_names":["sexo","tos","fiebre","dificultad_respiratoria","fatiga","odinofagia","cefalea","rinorrea","diarrea","hipertension","diabetes","obesidad","enfermedades_respiratorias"],"feature_types":["int","int","int","int","int","int","int","int","int","int","int","int","int"],"gradient_booster":{"model":{"gbtree_model_param":{"num_trees":"100","size_leaf_vector":"0"},"tree_info":[0,0,0,0,0,0,0,0,0,0,0,0,0,0,0,0,0,0,0,0,0,0,0,0,0,0,0,0,0,0,0,0,0,0,0,0,0,0,0,0,0,0,0,0,0,0,0,0,0,0,0,0,0,0,0,0,0,0,0,0,0,0,0,0,0,0,0,0,0,0,0,0,0,0,0,0,0,0,0,0,0,0,0,0,0,0,0,0,0,0,0,0,0,0,0,0,0,0,0,0],"trees":[{"base_weights":[2.1138212E-1,-1.5384616E-1,2.5225225E-1,-3.5E-1,3.75E-1,-0E0,3.0769232E-1,-0E0,-4.375E-1,1.3333334E-1,-2.857143E-1,2.0512821E-1,3.773585E-1],"categories":[],"categories_nodes":[],"categories_segments":[],"categories_sizes":[],"default_left":[true,true,true,true,false,true,true,false,false,false,false,false,false],"id":0,"left_children":[1,3,5,7,-1,9,11,-1,-1,-1,-1,-1,-1],"loss_changes":[1.8748207E0,1.4798077E0,1.5523219E0,3.0624998E-1,0E0,8.380953E-1,5.728102E-1,0E0,0E0,0E0,0E0,0E0,0E0],"parents":[2147483647,0,0,1,1,2,2,3,3,5,5,6,6],"right_children":[2,4,6,8,-1,10,12,-1,-1,-1,-1,-1,-1],"split_conditions":[5E-1,5E-1,5E-1,5E-1,3.75E-3,5E-1,5E-1,-0E0,-4.375E-3,1.3333333E-3,-2.8571428E-3,2.051282E-3,3.773585E-3],"split_indices":[1,3,2,2,0,6,3,0,0,0,0,0,0],"split_type":[0,0,0,0,0,0,0,0,0,0,0,0,0],"sum_hessian":[1.22E2,1.2E1,1.1E2,9E0,3E0,2E1,9E1,2E0,7E0,1.4E1,6E0,3.8E1,5.2E1],"tree_param":{"num_deleted":"0","num_feature":"13","num_nodes":"13","size_leaf_vector":"0"}},{"base_weights":[2.0929818E-1,-1.5235578E-1,2.4976848E-1,-3.4693748E-1,3.721875E-1,-7.257575E-5,3.046794E-1,-0E0,-4.3367186E-1,1.3208887E-1,-2.832653E-1,2.0312952E-1,3.7365612E-1],"categories":[],"categories_nodes":[],"categories_segments":[],"categories_sizes":[],"default_left":[true,true,true,true,false,true,true,false,false,false,false,false,false],"id":1,"left_children":[1,3,5,7,-1,9,11,-1,-1,-1,-1,-1,-1],"loss_changes":[1.8383117E0,1.4559906E0,1.5228314E0,3.0091405E-1,0E0,8.2338655E-1,5.615158E-1,0E0,0E0,0E0,0E0,0E0,0E0],"parents":[2147483647,0,0,1,1,2,2,3,3,5,5,6,6],"right_children":[2,4,6,8,-1,10,12,-1,-1,-1,-1,-1,-1],"split_conditions":[5E-1,5E-1,5E-1,5E-1,3.721875E-3,5E-1,5E-1,-0E0,-4.3367185E-3,1.3208886E-3,-2.8326528E-3,2.031295E-3,3.7365612E-3],"split_indices":[1,3,2,2,0,6,3,0,0,0,0,0,0],"split_type":[0,0,0,0,0,0,0,0,0,0,0,0,0],"sum_hessian":[1.22E2,1.2E1,1.1E2,9E0,3E0,2E1,9E1,2E0,7E0,1.4E1,6E0,3.8E1,5.2E1],"tree_param":{"num_deleted":"0","num_feature":"13","num_nodes":"13","size_leaf_vector":"0"}},{"base_weights":[2.0723481E-1,-1.5087952E-1,2.4730915E-1,-3.4390178E-1,3.6939606E-1,-1.4384587E-4,3.01696E-1,-0E0,-4.2987725E-1,1.3085602E-1,-2.8083733E-1,2.0115033E-1,3.6999005E-1],"categories":[],"categories_nodes":[],"categories_segments":[],"categories_sizes":[],"default_left":[true,true,true,true,false,true,true,false,false,false,false,false,false],"id":2,"left_children":[1,3,5,7,-1,9,11,-1,-1,-1,-1,-1,-1],"loss_changes":[1.8025112E0,1.4325581E0,1.4939022E0,2.956711E-1,0E0,8.089363E-1,5.5044365E-1,0E0,0E0,0E0,0E0,0E0,0E0],"parents":[2147483647,0,0,1,1,2,2,3,3,5,5,6,6],"right_children":[2,4,6,8,-1,10,12,-1,-1,-1,-1,-1,-1],"split_conditions":[5E-1,5E-1,5E-1,5E-1,3.6939606E-3,5E-1,5E-1,-0E0,-4.298772E-3,1.3085601E-3,-2.8083732E-3,2.0115033E-3,3.6999003E-3],"split_indices":[1,3,2,2,0,6,3,0,0,0,0,0,0],"split_type":[0,0,0,0,0,0,0,0,0,0,0,0,0],"sum_hessian":[1.22E2,1.2E1,1.1E2,9E0,3E0,2E1,9E1,2E0,7E0,1.4E1,6E0,3.8E1,5.2E1],"tree_param":{"num_deleted":"0","num_feature":"13","num_nodes":"13","size_leaf_vector":"0"}},{"base_weights":[2.0519179E-1,-1.4941724E-1,2.44874E-1,-3.4089264E-1,3.666256E-1,-2.1382883E-4,2.9874182E-1,-0E0,-4.261158E-1,1.2963471E-1,-2.7843013E-1,1.9919042E-1,3.6635998E-1],"categories":[],"categories_nodes":[],"categories_segments":[],"categories_sizes":[],"default_left":[true,true,true,true,false,true,true,false,false,false,false,false,false],"id":3,"left_children":[1,3,5,7,-1,9,11,-1,-1,-1,-1,-1,-1],"loss_changes":[1.7674036E0,1.4095037E0,1.4655247E0,2.9051948E-1,0E0,7.947398E-1,5.395889E-1,0E0,0E0,0E0,0E0,0E0,0E0],"parents":[2147483647,0,0,1,1,2,2,3,3,5,5,6,6],"right_children":[2,4,6,8,-1,10,12,-1,-1,-1,-1,-1,-1],"split_conditions":[5E-1,5E-1,5E-1,5E-1,3.666256E-3,5E-1,5E-1,-0E0,-4.261158E-3,1.296347E-3,-2.7843013E-3,1.991904E-3,3.6635997E-3],"split_indices":[1,3,2,2,0,6,3,0,0,0,0,0,0],"split_type":[0,0,0,0,0,0,0,0,0,0,0,0,0],"sum_hessian":[1.22E2,1.2E1,1.1E2,9E0,3E0,2E1,9E1,2E0,7E0,1.4E1,6E0,3.8E1,5.2E1],"tree_param":{"num_deleted":"0","num_feature":"13","num_nodes":"13","size_leaf_vector":"0"}},{"base_weights":[2.0316891E-1,-1.4796883E-1,2.424628E-1,-3.3790982E-1,3.638759E-1,-2.8254162E-4,2.9581654E-1,-0E0,-4.223873E-1,1.284248E-1,-2.760436E-1,1.9724958E-1,3.627655E-1],"categories":[],"categories_nodes":[],"categories_segments":[],"categories_sizes":[],"default_left":[true,true,true,true,false,true,true,false,false,false,false,false,false],"id":4,"left_children":[1,3,5,7,-1,9,11,-1,-1,-1,-1,-1,-1],"loss_changes":[1.7329779E0,1.3868212E0,1.4376855E0,2.854576E-1,0E0,7.807927E-1,5.2894926E-1,0E0,0E0,0E0,0E0,0E0,0E0],"parents":[2147483647,0,0,1,1,2,2,3,3,5,5,6,6],"right_children":[2,4,6,8,-1,10,12,-1,-1,-1,-1,-1,-1],"split_conditions":[5E-1,5E-1,5E-1,5E-1,3.6387588E-3,5E-1,5E-1,-0E0,-4.223873E-3,1.284248E-3,-2.760436E-3,1.9724958E-3,3.6276549E-3],"split_indices":[1,3,2,2,0,6,3,0,0,0,0,0,0],"split_type":[0,0,0,0,0,0,0,0,0,0,0,0,0],"sum_hessian":[1.22E2,1.2E1,1.1E2,9E0,3E0,2E1,9E1,2E0,7E0,1.4E1,6E0,3.8E1,5.2E1],"tree_param":{"num_deleted":"0","num_feature":"13","num_nodes":"13","size_leaf_vector":"0"}},{"base_weights":[2.01166E-1,-1.4653414E-1,2.4007533E-1,-3.3495313E-1,3.6114684E-1,-3.5000415E-4,2.929199E-1,-0E0,-4.186914E-1,1.2722616E-1,-2.736775E-1,1.9532765E-1,3.592063E-1],"categories":[],"categories_nodes":[],"categories_segments":[],"categories_sizes":[],"default_left":[true,true,true,true,false,true,true,false,false,false,false,false,false],"id":5,"left_children":[1,3,5,7,-1,9,11,-1,-1,-1,-1,-1,-1],"loss_changes":[1.6992192E0,1.3645047E0,1.410377E0,2.8048396E-1,0E0,7.670905E-1,5.185189E-1,0E0,0E0,0E0,0E0,0E0,0E0],"parents":[2147483647,0,0,1,1,2,2,3,3,5,5,6,6],"right_children":[2,4,6,8,-1,10,12,-1,-1,-1,-1,-1,-1],"split_conditions":[5E-1,5E-1,5E-1,5E-1,3.6114682E-3,5E-1,5E-1,-0E0,-4.186914E-3,1.2722616E-3,-2.736775E-3,1.9532766E-3,3.5920627E-3],"split_indices":[1,3,2,2,0,6,3,0,0,0,0,0,0],"split_type":[0,0,0,0,0,0,0,0,0,0,0,0,0],"sum_hessian":[1.22E2,1.2E1,1.1E2,9E0,3E0,2E1,9E1,2E0,7E0,1.4E1,6E0,3.8E1,5.2E1],"tree_param":{"num_deleted":"0","num_feature":"13","num_nodes":"13","size_leaf_vector":"0"}},{"base_weights":[1.9918282E-1,-1.4511305E-1,2.3771133E-1,-3.3202225E-1,3.5843825E-1,-4.1624336E-4,2.9005164E-1,-0E0,-4.1502783E-1,1.2603872E-1,-2.713317E-1,1.9342443E-1,3.55682E-1],"categories":[],"categories_nodes":[],"categories_segments":[],"categories_sizes":[],"default_left":[true,true,true,true,false,true,true,false,false,false,false,false,false],"id":6,"left_children":[1,3,5,7,-1,9,11,-1,-1,-1,-1,-1,-1],"loss_changes":[1.6661153E0,1.3425483E0,1.3835878E0,2.7559698E-1,0E0,7.5362897E-1,5.082946E-1,0E0,0E0,0E0,0E0,0E0,0E0],"parents":[2147483647,0,0,1,1,2,2,3,3,5,5,6,6],"right_children":[2,4,6,8,-1,10,12,-1,-1,-1,-1,-1,-1],"split_conditions":[5E-1,5E-1,5E-1,5E-1,3.5843824E-3,5E-1,5E-1,-0E0,-4.1502784E-3,1.2603871E-3,-2.7133168E-3,1.9342443E-3,3.5568199E-3],"split_indices":[1,3,2,2,0,6,3,0,0,0,0,0,0],"split_type":[0,0,0,0,0,0,0,0,0,0,0,0,0],"sum_hessian":[1.22E2,1.2E1,1.1E2,9E0,3E0,2E1,9E1,2E0,7E0,1.4E1,6E0,3.8E1,5.2E1],"tree_param":{"num_deleted":"0","num_feature":"13","num_nodes":"13","size_leaf_vector":"0"}},{"base_weights":[1.9721922E-1,-1.4370546E-1,2.3537058E-1,-3.2911706E-1,3.5574996E-1,-4.8127485E-4,2.8721145E-1,-0E0,-4.1139635E-1,1.2486234E-1,-2.6900598E-1,1.915398E-1,3.5219225E-1],"categories":[],"categories_nodes":[],"categories_segments":[],"categories_sizes":[],"default_left":[true,true,true,true,false,true,true,false,false,false,false,false,false],"id":7,"left_children":[1,3,5,7,-1,9,11,-1,-1,-1,-1,-1,-1],"loss_changes":[1.6336532E0,1.3209463E0,1.3573089E0,2.707951E-1,0E0,7.404038E-1,4.9827147E-1,0E0,0E0,0E0,0E0,0E0,0E0],"parents":[2147483647,0,0,1,1,2,2,3,3,5,5,6,6],"right_children":[2,4,6,8,-1,10,12,-1,-1,-1,-1,-1,-1],"split_conditions":[5E-1,5E-1,5E-1,5E-1,3.5574995E-3,5E-1,5E-1,-0E0,-4.1139633E-3,1.2486234E-3,-2.6900598E-3,1.9153979E-3,3.5219225E-3],"split_indices":[1,3,2,2,0,6,3,0,0,0,0,0,0],"split_type":[0,0,0,0,0,0,0,0,0,0,0,0,0],"sum_hessian":[1.22E2,1.2E1,1.1E2,9E0,3E0,2E1,9E1,2E0,7E0,1.4E1,6E0,3.8E1,5.2E1],"tree_param":{"num_deleted":"0","num_feature":"13","num_nodes":"13","size_leaf_vector":"0"}},{"base_weights":[1.95275E-1,-1.423112E-1,2.3305288E-1,-3.262373E-1,3.5308182E-1,-5.450873E-4,2.843991E-1,-0E0,-4.0779662E-1,1.2369699E-1,-2.6670024E-1,1.8967351E-1,3.487368E-1],"categories":[],"categories_nodes":[],"categories_segments":[],"categories_sizes":[],"default_left":[true,true,true,true,false,true,true,false,false,false,false,false,false],"id":8,"left_children":[1,3,5,7,-1,9,11,-1,-1,-1,-1,-1,-1],"loss_changes":[1.6018214E0,1.2996926E0,1.3315296E0,2.6607692E-1,0E0,7.2741103E-1,4.884467E-1,0E0,0E0,0E0,0E0,0E0,0E0],"parents":[2147483647,0,0,1,1,2,2,3,3,5,5,6,6],"right_children":[2,4,6,8,-1,10,12,-1,-1,-1,-1,-1,-1],"split_conditions":[5E-1,5E-1,5E-1,5E-1,3.530818E-3,5E-1,5E-1,-0E0,-4.0779663E-3,1.2369698E-3,-2.6670024E-3,1.896735E-3,3.4873679E-3],"split_indices":[1,3,2,2,0,6,3,0,0,0,0,0,0],"split_type":[0,0,0,0,0,0,0,0,0,0,0,0,0],"sum_hessian":[1.22E2,1.2E1,1.1E2,9E0,3E0,2E1,9E1,2E0,7E0,1.4E1,6E0,3.8E1,5.2E1],"tree_param":{"num_deleted":"0","num_feature":"13","num_nodes":"13","size_leaf_vector":"0"}},{"base_weights":[1.9334996E-1,-1.4093018E-1,2.3075798E-1,-3.233827E-1,3.5043374E-1,-6.0773466E-4,2.8161427E-1,-0E0,-4.042284E-1,1.2254248E-1,-2.6441422E-1,1.8782541E-1,3.4531525E-1],"categories":[],"categories_nodes":[],"categories_segments":[],"categories_sizes":[],"default_left":[true,true,true,true,false,true,true,false,false,false,false,false,false],"id":9,"left_children":[1,3,5,7,-1,9,11,-1,-1,-1,-1,-1,-1],"loss_changes":[1.5706062E0,1.278782E0,1.3062415E0,2.6144087E-1,0E0,7.146463E-1,4.7881508E-1,0E0,0E0,0E0,0E0,0E0,0E0],"parents":[2147483647,0,0,1,1,2,2,3,3,5,5,6,6],"right_children":[2,4,6,8,-1,10,12,-1,-1,-1,-1,-1,-1],"split_conditions":[5E-1,5E-1,5E-1,5E-1,3.5043373E-3,5E-1,5E-1,-0E0,-4.0422836E-3,1.2254247E-3,-2.6441421E-3,1.8782541E-3,3.4531525E-3],"split_indices":[1,3,2,2,0,6,3,0,0,0,0,0,0],"split_type":[0,0,0,0,0,0,0,0,0,0,0,0,0],"sum_hessian":[1.22E2,1.2E1,1.1E2,9E0,3E0,2E1,9E1,2E0,7E0,1.4E1,6E0,3.8E1,5.2E1],"tree_param":{"num_deleted":"0","num_feature":"13","num_nodes":"13","size_leaf_vector":"0"}},{"base_weights":[1.9144389E-1,-1.3956223E-1,2.2848566E-1,-3.205531E-1,3.478055E-1,-6.6920544E-4,2.7885672E-1,-0E0,-4.006914E-1,1.2139876E-1,-2.621478E-1,1.8599531E-1,3.4192726E-1],"categories":[],"categories_nodes":[],"categories_segments":[],"categories_sizes":[],"default_left":[true,true,true,true,false,true,true,false,false,false,false,false,false],"id":10,"left_children":[1,3,5,7,-1,9,11,-1,-1,-1,-1,-1,-1],"loss_changes":[1.5399971E0,1.2582085E0,1.2814345E0,2.5688577E-1,0E0,7.021058E-1,4.693737E-1,0E0,0E0,0E0,0E0,0E0,0E0],"parents":[2147483647,0,0,1,1,2,2,3,3,5,5,6,6],"right_children":[2,4,6,8,-1,10,12,-1,-1,-1,-1,-1,-1],"split_conditions":[5E-1,5E-1,5E-1,5E-1,3.478055E-3,5E-1,5E-1,-0E0,-4.006914E-3,1.2139876E-3,-2.6214782E-3,1.859953E-3,3.4192726E-3],"split_indices":[1,3,2,2,0,6,3,0,0,0,0,0,0],"split_type":[0,0,0,0,0,0,0,0,0,0,0,0,0],"sum_hessian":[1.22E2,1.2E1,1.1E2,9E0,3E0,2E1,9E1,2E0,7E0,1.4E1,6E0,3.8E1,5.2E1],"tree_param":{"num_deleted":"0","num_feature":"13","num_nodes":"13","size_leaf_vector":"0"}},{"base_weights":[1.8955663E-1,-1.3820729E-1,2.2623567E-1,-3.1774825E-1,3.4519696E-1,-7.2952255E-4,2.7612615E-1,-0E0,-3.9718533E-1,1.2026572E-1,-2.5990084E-1,1.8418303E-1,3.385725E-1],"categories":[],"categories_nodes":[],"categories_segments":[],"categories_sizes":[],"default_left":[true,true,true,true,false,true,true,false,false,false,false,false,false],"id":11,"left_children":[1,3,5,7,-1,9,11,-1,-1,-1,-1,-1,-1],"loss_changes":[1.5099821E0,1.237967E0,1.2570987E0,2.5240982E-1,0E0,6.8978554E-1,4.601183E-1,0E0,0E0,0E0,0E0,0E0,0E0],"parents":[2147483647,0,0,1,1,2,2,3,3,5,5,6,6],"right_children":[2,4,6,8,-1,10,12,-1,-1,-1,-1,-1,-1],"split_conditions":[5E-1,5E-1,5E-1,5E-1,3.4519695E-3,5E-1,5E-1,-0E0,-3.9718533E-3,1.2026572E-3,-2.5990084E-3,1.8418303E-3,3.385725E-3],"split_indices":[1,3,2,2,0,6,3,0,0,0,0,0,0],"split_type":[0,0,0,0,0,0,0,0,0,0,0,0,0],"sum_hessian":[1.22E2,1.2E1,1.1E2,9E0,3E0,2E1,9E1,2E0,7E0,1.4E1,6E0,3.8E1,5.2E1],"tree_param":{"num_deleted":"0","num_feature":"13","num_nodes":"13","size_leaf_vector":"0"}},{"base_weights":[1.8768798E-1,-1.3686521E-1,2.2400783E-1,-3.1496796E-1,3.4260798E-1,-7.8871276E-4,2.7342233E-1,-0E0,-3.9370996E-1,1.19143255E-1,-2.576731E-1,1.8238842E-1,3.3525065E-1],"categories":[],"categories_nodes":[],"categories_segments":[],"categories_sizes":[],"default_left":[true,true,true,true,false,true,true,false,false,false,false,false,false],"id":12,"left_children":[1,3,5,7,-1,9,11,-1,-1,-1,-1,-1,-1],"loss_changes":[1.4805489E0,1.2180519E0,1.2332268E0,2.48012E-1,0E0,6.7768174E-1,4.5104504E-1,0E0,0E0,0E0,0E0,0E0,0E0],"parents":[2147483647,0,0,1,1,2,2,3,3,5,5,6,6],"right_children":[2,4,6,8,-1,10,12,-1,-1,-1,-1,-1,-1],"split_conditions":[5E-1,5E-1,5E-1,5E-1,3.4260796E-3,5E-1,5E-1,-0E0,-3.9370996E-3,1.1914325E-3,-2.5767311E-3,1.8238842E-3,3.3525063E-3],"split_indices":[1,3,2,2,0,6,3,0,0,0,0,0,0],"split_type":[0,0,0,0,0,0,0,0,0,0,0,0,0],"sum_hessian":[1.22E2,1.2E1,1.1E2,9E0,3E0,2E1,9E1,2E0,7E0,1.4E1,6E0,3.8E1,5.2E1],"tree_param":{"num_deleted":"0","num_feature":"13","num_nodes":"13","size_leaf_vector":"0"}},{"base_weights":[1.8583776E-1,-1.3553587E-1,2.2180189E-1,-3.12212E-1,3.4003842E-1,-8.467947E-4,2.7074498E-1,-0E0,-3.90265E-1,1.1803125E-1,-2.554645E-1,1.8061128E-1,3.319614E-1],"categories":[],"categories_nodes":[],"categories_segments":[],"categories_sizes":[],"default_left":[true,true,true,true,false,true,true,false,false,false,false,false,false],"id":13,"left_children":[1,3,5,7,-1,9,11,-1,-1,-1,-1,-1,-1],"loss_changes":[1.4516869E0,1.1984583E0,1.2098093E0,2.4369079E-1,0E0,6.6579026E-1,4.4215107E-1,0E0,0E0,0E0,0E0,0E0,0E0],"parents":[2147483647,0,0,1,1,2,2,3,3,5,5,6,6],"right_children":[2,4,6,8,-1,10,12,-1,-1,-1,-1,-1,-1],"split_conditions":[5E-1,5E-1,5E-1,5E-1,3.4003842E-3,5E-1,5E-1,-0E0,-3.9026497E-3,1.1803125E-3,-2.5546448E-3,1.8061128E-3,3.3196139E-3],"split_indices":[1,3,2,2,0,6,3,0,0,0,0,0,0],"split_type":[0,0,0,0,0,0,0,0,0,0,0,0,0],"sum_hessian":[1.22E2,1.2E1,1.1E2,9E0,3E0,2E1,9E1,2E0,7E0,1.4E1,6E0,3.8E1,5.2E1],"tree_param":{"num_deleted":"0","num_feature":"13","num_nodes":"13","size_leaf_vector":"0"}},{"base_weights":[1.8400578E-1,-1.3421915E-1,2.1961766E-1,-3.0948016E-1,3.3748814E-1,-9.0375403E-4,2.6809385E-1,-0E0,-3.8685018E-1,1.1692964E-1,-2.5327477E-1,1.499996E-1,3.1302387E-1],"categories":[],"categories_nodes":[],"categories_segments":[],"categories_sizes":[],"default_left":[true,true,true,true,false,true,true,false,false,false,false,false,false],"id":14,"left_children":[1,3,5,7,-1,9,11,-1,-1,-1,-1,-1,-1],"loss_changes":[1.4233856E0,1.1791805E0,1.1868362E0,2.3944485E-1,0E0,6.5410775E-1,4.358902E-1,0E0,0E0,0E0,0E0,0E0,0E0],"parents":[2147483647,0,0,1,1,2,2,3,3,5,5,6,6],"right_children":[2,4,6,8,-1,10,12,-1,-1,-1,-1,-1,-1],"split_conditions":[5E-1,5E-1,5E-1,5E-1,3.3748813E-3,5E-1,5E-1,-0E0,-3.8685016E-3,1.1692964E-3,-2.5327476E-3,1.499996E-3,3.1302385E-3],"split_indices":[1,3,2,2,0,6,4,0,0,0,0,0,0],"split_type":[0,0,0,0,0,0,0,0,0,0,0,0,0],"sum_hessian":[1.22E2,1.2E1,1.1E2,9E0,3E0,2E1,9E1,2E0,7E0,1.4E1,6E0,2.6E1,6.4E1],"tree_param":{"num_deleted":"0","num_feature":"13","num_nodes":"13","size_leaf_vector":"0"}},{"base_weights":[1.8218826E-1,-1.3291493E-1,2.174509E-1,-3.067722E-1,3.34957E-1,-9.5966173E-4,2.6546377E-1,-0E0,-3.8346526E-1,1.15838274E-1,-2.5110385E-1,1.7642848E-1,3.2597154E-1],"categories":[],"categories_nodes":[],"categories_segments":[],"categories_sizes":[],"default_left":[true,true,true,true,false,true,true,false,false,false,false,false,false],"id":15,"left_children":[1,3,5,7,-1,9,11,-1,-1,-1,-1,-1,-1],"loss_changes":[1.3956013E0,1.1602137E0,1.1642585E0,2.35273E-1,0E0,6.4263034E-1,4.3273592E-1,0E0,0E0,0E0,0E0,0E0,0E0],"parents":[2147483647,0,0,1,1,2,2,3,3,5,5,6,6],"right_children":[2,4,6,8,-1,10,12,-1,-1,-1,-1,-1,-1],"split_conditions":[5E-1,5E-1,5E-1,5E-1,3.3495699E-3,5E-1,5E-1,-0E0,-3.8346525E-3,1.1583827E-3,-2.5110384E-3,1.7642848E-3,3.2597154E-3],"split_indices":[1,3,2,2,0,6,3,0,0,0,0,0,0],"split_type":[0,0,0,0,0,0,0,0,0,0,0,0,0],"sum_hessian":[1.22E2,1.2E1,1.1E2,9E0,3E0,2E1,9E1,2E0,7E0,1.4E1,6E0,3.8E1,5.2E1],"tree_param":{"num_deleted":"0","num_feature":"13","num_nodes":"13","size_leaf_vector":"0"}},{"base_weights":[1.8039228E-1,-1.3162309E-1,2.1530947E-1,-3.0408794E-1,3.3244485E-1,-1.014464E-3,2.6286432E-1,-0E0,-3.8010994E-1,1.1475714E-1,-2.4895155E-1,1.4624694E-1,3.0726135E-1],"categories":[],"categories_nodes":[],"categories_segments":[],"categories_sizes":[],"default_left":[true,true,true,true,false,true,true,false,false,false,false,false,false],"id":16,"left_children":[1,3,5,7,-1,9,11,-1,-1,-1,-1,-1,-1],"loss_changes":[1.3683872E0,1.1415527E0,1.1421518E0,2.3117363E-1,0E0,6.313545E-1,4.2621326E-1,0E0,0E0,0E0,0E0,0E0,0E0],"parents":[2147483647,0,0,1,1,2,2,3,3,5,5,6,6],"right_children":[2,4,6,8,-1,10,12,-1,-1,-1,-1,-1,-1],"split_conditions":[5E-1,5E-1,5E-1,5E-1,3.3244484E-3,5E-1,5E-1,-0E0,-3.8010993E-3,1.1475714E-3,-2.4895156E-3,1.4624693E-3,3.0726134E-3],"split_indices":[1,3,2,2,0,6,4,0,0,0,0,0,0],"split_type":[0,0,0,0,0,0,0,0,0,0,0,0,0],"sum_hessian":[1.22E2,1.2E1,1.1E2,9E0,3E0,2E1,9E1,2E0,7E0,1.4E1,6E0,2.6E1,6.4E1],"tree_param":{"num_deleted":"0","num_feature":"13","num_nodes":"13","size_leaf_vector":"0"}},{"base_weights":[1.7861044E-1,-1.3034351E-1,2.1318513E-1,-3.0142716E-1,3.299515E-1,-1.0682188E-3,2.6028553E-1,-0E0,-3.7678397E-1,1.1368608E-1,-2.4681768E-1,1.7233488E-1,3.200929E-1],"categories":[],"categories_nodes":[],"categories_segments":[],"categories_sizes":[],"default_left":[true,true,true,true,false,true,true,false,false,false,false,false,false],"id":17,"left_children":[1,3,5,7,-1,9,11,-1,-1,-1,-1,-1,-1],"loss_changes":[1.3416717E0,1.1231928E0,1.1204247E0,2.2714579E-1,0E0,6.202767E-1,4.2350578E-1,0E0,0E0,0E0,0E0,0E0,0E0],"parents":[2147483647,0,0,1,1,2,2,3,3,5,5,6,6],"right_children":[2,4,6,8,-1,10,12,-1,-1,-1,-1,-1,-1],"split_conditions":[5E-1,5E-1,5E-1,5E-1,3.2995148E-3,5E-1,5E-1,-0E0,-3.7678396E-3,1.1368607E-3,-2.4681767E-3,1.7233487E-3,3.2009287E-3],"split_indices":[1,3,2,2,0,6,3,0,0,0,0,0,0],"split_type":[0,0,0,0,0,0,0,0,0,0,0,0,0],"sum_hessian":[1.22E2,1.2E1,1.1E2,9E0,3E0,2E1,9E1,2E0,7E0,1.4E1,6E0,3.8E1,5.2E1],"tree_param":{"num_deleted":"0","num_feature":"13","num_nodes":"13","size_leaf_vector":"0"}},{"base_weights":[1.7684974E-1,-1.2907611E-1,2.1108565E-1,-2.9878968E-1,3.2747686E-1,-1.1209236E-3,2.5773677E-1,-0E0,-3.734871E-1,1.12625025E-1,-2.4470212E-1,1.4257714E-1,3.0160713E-1],"categories":[],"categories_nodes":[],"categories_segments":[],"categories_sizes":[],"default_left":[true,true,true,true,false,true,true,false,false,false,false,false,false],"id":18,"left_children":[1,3,5,7,-1,9,11,-1,-1,-1,-1,-1,-1],"loss_changes":[1.3155053E0,1.1051286E0,1.0991526E0,2.231881E-1,0E0,6.093934E-1,4.167385E-1,0E0,0E0,0E0,0E0,0E0,0E0],"parents":[2147483647,0,0,1,1,2,2,3,3,5,5,6,6],"right_children":[2,4,6,8,-1,10,12,-1,-1,-1,-1,-1,-1],"split_conditions":[5E-1,5E-1,5E-1,5E-1,3.2747686E-3,5E-1,5E-1,-0E0,-3.7348708E-3,1.1262503E-3,-2.4470212E-3,1.4257714E-3,3.0160712E-3],"split_indices":[1,3,2,2,0,6,4,0,0,0,0,0,0],"split_type":[0,0,0,0,0,0,0,0,0,0,0,0,0],"sum_hessian":[1.22E2,1.2E1,1.1E2,9E0,3E0,2E1,9E1,2E0,7E0,1.4E1,6E0,2.6E1,6.4E1],"tree_param":{"num_deleted":"0","num_feature":"13","num_nodes":"13","size_leaf_vector":"0"}},{"base_weights":[1.7510289E-1,-1.2782073E-1,2.0900293E-1,-2.9617527E-1,3.250208E-1,-1.1725979E-3,2.5520822E-1,-0E0,-3.7021908E-1,1.1157388E-1,-2.4260467E-1,1.6832866E-1,3.1432325E-1],"categories":[],"categories_nodes":[],"categories_segments":[],"categories_sizes":[],"default_left":[true,true,true,true,false,true,true,false,false,false,false,false,false],"id":19,"left_children":[1,3,5,7,-1,9,11,-1,-1,-1,-1,-1,-1],"loss_changes":[1.2898169E0,1.0873562E0,1.0782456E0,2.192995E-1,0E0,5.987013E-1,4.144559E-1,0E0,0E0,0E0,0E0,0E0,0E0],"parents":[2147483647,0,0,1,1,2,2,3,3,5,5,6,6],"right_children":[2,4,6,8,-1,10,12,-1,-1,-1,-1,-1,-1],"split_conditions":[5E-1,5E-1,5E-1,5E-1,3.2502078E-3,5E-1,5E-1,-0E0,-3.7021907E-3,1.1157388E-3,-2.4260466E-3,1.6832865E-3,3.1432323E-3],"split_indices":[1,3,2,2,0,6,3,0,0,0,0,0,0],"split_type":[0,0,0,0,0,0,0,0,0,0,0,0,0],"sum_hessian":[1.22E2,1.2E1,1.1E2,9E0,3E0,2E1,9E1,2E0,7E0,1.4E1,6E0,3.8E1,5.2E1],"tree_param":{"num_deleted":"0","num_feature":"13","num_nodes":"13","size_leaf_vector":"0"}},{"base_weights":[1.7337677E-1,-1.2657729E-1,2.0694457E-1,-2.9358375E-1,3.2258314E-1,-1.2232633E-3,2.5270918E-1,-0E0,-3.6697966E-1,1.1053252E-1,-2.405252E-1,1.3898845E-1,2.960592E-1],"categories":[],"categories_nodes":[],"categories_segments":[],"categories_sizes":[],"default_left":[true,true,true,true,false,true,true,false,false,false,false,false,false],"id":20,"left_children":[1,3,5,7,-1,9,11,-1,-1,-1,-1,-1,-1],"loss_changes":[1.2646563E0,1.0698701E0,1.057775E0,2.154786E-1,0E0,5.8819675E-1,4.074626E-1,0E0,0E0,0E0,0E0,0E0,0E0],"parents":[2147483647,0,0,1,1,2,2,3,3,5,5,6,6],"right_children":[2,4,6,8,-1,10,12,-1,-1,-1,-1,-1,-1],"split_conditions":[5E-1,5E-1,5E-1,5E-1,3.2258313E-3,5E-1,5E-1,-0E0,-3.6697965E-3,1.1053252E-3,-2.4052518E-3,1.3898845E-3,2.9605918E-3],"split_indices":[1,3,2,2,0,6,4,0,0,0,0,0,0],"split_type":[0,0,0,0,0,0,0,0,0,0,0,0,0],"sum_hessian":[1.22E2,1.2E1,1.1E2,9E0,3E0,2E1,9E1,2E0,7E0,1.4E1,6E0,2.6E1,6.4E1],"tree_param":{"num_deleted":"0","num_feature":"13","num_nodes":"13","size_leaf_vector":"0"}},{"base_weights":[1.7166421E-1,-1.2534566E-1,2.0490262E-1,-2.9101488E-1,3.201638E-1,-1.2729211E-3,2.5022992E-1,-0E0,-3.637686E-1,1.095009E-1,-2.3846355E-1,1.6440798E-1,3.086606E-1],"categories":[],"categories_nodes":[],"categories_segments":[],"categories_sizes":[],"default_left":[true,true,true,true,false,true,true,false,false,false,false,false,false],"id":21,"left_children":[1,3,5,7,-1,9,11,-1,-1,-1,-1,-1,-1],"loss_changes":[1.2399566E0,1.0526661E0,1.0376554E0,2.1172422E-1,0E0,5.7787675E-1,4.055853E-1,0E0,0E0,0E0,0E0,0E0,0E0],"parents":[2147483647,0,0,1,1,2,2,3,3,5,5,6,6],"right_children":[2,4,6,8,-1,10,12,-1,-1,-1,-1,-1,-1],"split_conditions":[5E-1,5E-1,5E-1,5E-1,3.2016379E-3,5E-1,5E-1,-0E0,-3.637686E-3,1.0950089E-3,-2.3846354E-3,1.6440798E-3,3.0866058E-3],"split_indices":[1,3,2,2,0,6,3,0,0,0,0,0,0],"split_type":[0,0,0,0,0,0,0,0,0,0,0,0,0],"sum_hessian":[1.22E2,1.2E1,1.1E2,9E0,3E0,2E1,9E1,2E0,7E0,1.4E1,6E0,3.8E1,5.2E1],"tree_param":{"num_deleted":"0","num_feature":"13","num_nodes":"13","size_leaf_vector":"0"}},{"base_weights":[1.6997199E-1,-1.24125764E-1,2.028846E-1,-2.884685E-1,3.1776255E-1,-1.3215939E-3,2.477796E-1,-0E0,-3.6058563E-1,1.08478904E-1,-2.3641957E-1,1.3547918E-1,2.9061547E-1],"categories":[],"categories_nodes":[],"categories_segments":[],"categories_sizes":[],"default_left":[true,true,true,true,false,true,true,false,false,false,false,false,false],"id":22,"left_children":[1,3,5,7,-1,9,11,-1,-1,-1,-1,-1,-1],"loss_changes":[1.215764E0,1.0357393E0,1.0179577E0,2.0803523E-1,0E0,5.6773794E-1,3.983817E-1,0E0,0E0,0E0,0E0,0E0,0E0],"parents":[2147483647,0,0,1,1,2,2,3,3,5,5,6,6],"right_children":[2,4,6,8,-1,10,12,-1,-1,-1,-1,-1,-1],"split_conditions":[5E-1,5E-1,5E-1,5E-1,3.1776254E-3,5E-1,5E-1,-0E0,-3.6058563E-3,1.084789E-3,-2.3641957E-3,1.3547918E-3,2.9061546E-3],"split_indices":[1,3,2,2,0,6,4,0,0,0,0,0,0],"split_type":[0,0,0,0,0,0,0,0,0,0,0,0,0],"sum_hessian":[1.22E2,1.2E1,1.1E2,9E0,3E0,2E1,9E1,2E0,7E0,1.4E1,6E0,2.6E1,6.4E1],"tree_param":{"num_deleted":"0","num_feature":"13","num_nodes":"13","size_leaf_vector":"0"}},{"base_weights":[1.6829303E-1,-1.2291746E-1,2.008826E-1,-2.8594443E-1,3.1537932E-1,-1.3693159E-3,2.4534863E-1,-0E0,-3.5743052E-1,1.0746642E-1,-2.3439313E-1,1.6057111E-1,3.0310285E-1],"categories":[],"categories_nodes":[],"categories_segments":[],"categories_sizes":[],"default_left":[true,true,true,true,false,true,true,false,false,false,false,false,false],"id":23,"left_children":[1,3,5,7,-1,9,11,-1,-1,-1,-1,-1,-1],"loss_changes":[1.1920145E0,1.0190854E0,9.9859667E-1,2.0441055E-1,0E0,5.5777705E-1,3.9689016E-1,0E0,0E0,0E0,0E0,0E0,0E0],"parents":[2147483647,0,0,1,1,2,2,3,3,5,5,6,6],"right_children":[2,4,6,8,-1,10,12,-1,-1,-1,-1,-1,-1],"split_conditions":[5E-1,5E-1,5E-1,5E-1,3.153793E-3,5E-1,5E-1,-0E0,-3.574305E-3,1.0746642E-3,-2.3439312E-3,1.6057111E-3,3.0310284E-3],"split_indices":[1,3,2,2,0,6,3,0,0,0,0,0,0],"split_type":[0,0,0,0,0,0,0,0,0,0,0,0,0],"sum_hessian":[1.22E2,1.2E1,1.1E2,9E0,3E0,2E1,9E1,2E0,7E0,1.4E1,6E0,3.8E1,5.2E1],"tree_param":{"num_deleted":"0","num_feature":"13","num_nodes":"13","size_leaf_vector":"0"}},{"base_weights":[1.6663407E-1,-1.2172063E-1,1.9890413E-1,-2.834424E-1,3.1301397E-1,-1.4160702E-3,2.429461E-1,-0E0,-3.54303E-1,1.06463395E-1,-2.3238406E-1,1.3204764E-1,2.85274E-1],"categories":[],"categories_nodes":[],"categories_segments":[],"categories_sizes":[],"default_left":[true,true,true,true,false,true,true,false,false,false,false,false,false],"id":24,"left_children":[1,3,5,7,-1,9,11,-1,-1,-1,-1,-1,-1],"loss_changes":[1.1687534E0,1.0027001E0,9.7964096E-1,2.00849E-1,0E0,5.4799116E-1,3.8949347E-1,0E0,0E0,0E0,0E0,0E0,0E0],"parents":[2147483647,0,0,1,1,2,2,3,3,5,5,6,6],"right_children":[2,4,6,8,-1,10,12,-1,-1,-1,-1,-1,-1],"split_conditions":[5E-1,5E-1,5E-1,5E-1,3.1301396E-3,5E-1,5E-1,-0E0,-3.54303E-3,1.064634E-3,-2.3238405E-3,1.3204764E-3,2.85274E-3],"split_indices":[1,3,2,2,0,6,4,0,0,0,0,0,0],"split_type":[0,0,0,0,0,0,0,0,0,0,0,0,0],"sum_hessian":[1.22E2,1.2E1,1.1E2,9E0,3E0,2E1,9E1,2E0,7E0,1.4E1,6E0,2.6E1,6.4E1],"tree_param":{"num_deleted":"0","num_feature":"13","num_nodes":"13","size_leaf_vector":"0"}},{"base_weights":[1.6498806E-1,-1.2053519E-1,1.9694133E-1,-2.809623E-1,3.1066638E-1,-1.4618905E-3,2.4056251E-1,-0E0,-3.5120285E-1,1.0546971E-1,-2.303922E-1,1.5681633E-1,2.9764813E-1],"categories":[],"categories_nodes":[],"categories_segments":[],"categories_sizes":[],"default_left":[true,true,true,true,false,true,true,false,false,false,false,false,false],"id":25,"left_children":[1,3,5,7,-1,9,11,-1,-1,-1,-1,-1,-1],"loss_changes":[1.1459169E0,9.8657894E-1,9.6101E-1,1.9734955E-1,0E0,5.38377E-1,3.8836765E-1,0E0,0E0,0E0,0E0,0E0,0E0],"parents":[2147483647,0,0,1,1,2,2,3,3,5,5,6,6],"right_children":[2,4,6,8,-1,10,12,-1,-1,-1,-1,-1,-1],"split_conditions":[5E-1,5E-1,5E-1,5E-1,3.1066637E-3,5E-1,5E-1,-0E0,-3.5120284E-3,1.0546971E-3,-2.303922E-3,1.5681633E-3,2.9764813E-3],"split_indices":[1,3,2,2,0,6,3,0,0,0,0,0,0],"split_type":[0,0,0,0,0,0,0,0,0,0,0,0,0],"sum_hessian":[1.22E2,1.2E1,1.1E2,9E0,3E0,2E1,9E1,2E0,7E0,1.4E1,6E0,3.8E1,5.2E1],"tree_param":{"num_deleted":"0","num_feature":"13","num_nodes":"13","size_leaf_vector":"0"}},{"base_weights":[1.6336168E-1,-1.1936101E-1,1.9500162E-1,-2.7850387E-1,3.0833638E-1,-1.50676E-3,2.3820683E-1,-0E0,-3.4812984E-1,1.0448532E-1,-2.284174E-1,3.0049032E-1,1.6169295E-1],"categories":[],"categories_nodes":[],"categories_segments":[],"categories_sizes":[],"default_left":[true,true,true,true,false,true,true,false,false,false,false,false,false],"id":26,"left_children":[1,3,5,7,-1,9,11,-1,-1,-1,-1,-1,-1],"loss_changes":[1.1235511E0,9.7071767E-1,9.427695E-1,1.9391102E-1,0E0,5.289316E-1,3.8507795E-1,0E0,0E0,0E0,0E0,0E0,0E0],"parents":[2147483647,0,0,1,1,2,2,3,3,5,5,6,6],"right_children":[2,4,6,8,-1,10,12,-1,-1,-1,-1,-1,-1],"split_conditions":[5E-1,5E-1,5E-1,5E-1,3.0833636E-3,5E-1,5E-1,-0E0,-3.4812982E-3,1.0448531E-3,-2.2841739E-3,3.0049032E-3,1.6169294E-3],"split_indices":[1,3,2,2,0,6,0,0,0,0,0,0,0],"split_type":[0,0,0,0,0,0,0,0,0,0,0,0,0],"sum_hessian":[1.22E2,1.2E1,1.1E2,9E0,3E0,2E1,9E1,2E0,7E0,1.4E1,6E0,4.8E1,4.2E1],"tree_param":{"num_deleted":"0","num_feature":"13","num_nodes":"13","size_leaf_vector":"0"}},{"base_weights":[1.6175231E-1,-1.18198015E-1,1.9308206E-1,-2.7606696E-1,3.0602387E-1,-1.5507198E-3,2.3587555E-1,-0E0,-3.450837E-1,1.0351011E-1,-2.2645953E-1,1.5289436E-1,2.9248667E-1],"categories":[],"categories_nodes":[],"categories_segments":[],"categories_sizes":[],"default_left":[true,true,true,true,false,true,true,false,false,false,false,false,false],"id":27,"left_children":[1,3,5,7,-1,9,11,-1,-1,-1,-1,-1,-1],"loss_changes":[1.1016271E0,9.551121E-1,9.248862E-1,1.9053245E-1,0E0,5.196521E-1,3.827672E-1,0E0,0E0,0E0,0E0,0E0,0E0],"parents":[2147483647,0,0,1,1,2,2,3,3,5,5,6,6],"right_children":[2,4,6,8,-1,10,12,-1,-1,-1,-1,-1,-1],"split_conditions":[5E-1,5E-1,5E-1,5E-1,3.0602387E-3,5E-1,5E-1,-0E0,-3.450837E-3,1.0351011E-3,-2.2645954E-3,1.5289435E-3,2.9248665E-3],"split_indices":[1,3,2,2,0,6,3,0,0,0,0,0,0],"split_type":[0,0,0,0,0,0,0,0,0,0,0,0,0],"sum_hessian":[1.22E2,1.2E1,1.1E2,9E0,3E0,2E1,9E1,2E0,7E0,1.4E1,6E0,3.8E1,5.2E1],"tree_param":{"num_deleted":"0","num_feature":"13","num_nodes":"13","size_leaf_vector":"0"}},{"base_weights":[1.6015784E-1,-1.1704607E-1,1.911803E-1,-2.7365136E-1,3.037287E-1,-1.5937558E-3,2.3356575E-1,-0E0,-3.420642E-1,1.02544025E-1,-2.2451846E-1,1.2432308E-1,2.7535015E-1],"categories":[],"categories_nodes":[],"categories_segments":[],"categories_sizes":[],"default_left":[true,true,true,true,false,true,true,false,false,false,false,false,false],"id":28,"left_children":[1,3,5,7,-1,9,11,-1,-1,-1,-1,-1,-1],"loss_changes":[1.080121E0,9.397581E-1,9.073329E-1,1.8721265E-1,0E0,5.1053554E-1,3.8114977E-1,0E0,0E0,0E0,0E0,0E0,0E0],"parents":[2147483647,0,0,1,1,2,2,3,3,5,5,6,6],"right_children":[2,4,6,8,-1,10,12,-1,-1,-1,-1,-1,-1],"split_conditions":[5E-1,5E-1,5E-1,5E-1,3.037287E-3,5E-1,5E-1,-0E0,-3.4206419E-3,1.0254402E-3,-2.2451845E-3,1.2432308E-3,2.7535015E-3],"split_indices":[1,3,2,2,0,6,4,0,0,0,0,0,0],"split_type":[0,0,0,0,0,0,0,0,0,0,0,0,0],"sum_hessian":[1.22E2,1.2E1,1.1E2,9E0,3E0,2E1,9E1,2E0,7E0,1.4E1,6E0,2.6E1,6.4E1],"tree_param":{"num_deleted":"0","num_feature":"13","num_nodes":"13","size_leaf_vector":"0"}},{"base_weights":[1.5857573E-1,-1.1590509E-1,1.8929352E-1,-2.7125692E-1,3.0145073E-1,-1.6358992E-3,2.3127401E-1,-0E0,-3.3907115E-1,1.01586945E-1,-2.2259401E-1,2.9310182E-1,1.554406E-1],"categories":[],"categories_nodes":[],"categories_segments":[],"categories_sizes":[],"default_left":[true,true,true,true,false,true,true,false,false,false,false,false,false],"id":29,"left_children":[1,3,5,7,-1,9,11,-1,-1,-1,-1,-1,-1],"loss_changes":[1.0590079E0,9.246515E-1,8.900778E-1,1.8395084E-1,0E0,5.0157905E-1,3.81104E-1,0E0,0E0,0E0,0E0,0E0,0E0],"parents":[2147483647,0,0,1,1,2,2,3,3,5,5,6,6],"right_children":[2,4,6,8,-1,10,12,-1,-1,-1,-1,-1,-1],"split_conditions":[5E-1,5E-1,5E-1,5E-1,3.0145072E-3,5E-1,5E-1,-0E0,-3.3907115E-3,1.0158694E-3,-2.22594E-3,2.9310181E-3,1.5544059E-3],"split_indices":[1,3,2,2,0,6,0,0,0,0,0,0,0],"split_type":[0,0,0,0,0,0,0,0,0,0,0,0,0],"sum_hessian":[1.22E2,1.2E1,1.1E2,9E0,3E0,2E1,9E1,2E0,7E0,1.4E1,6E0,4.8E1,4.2E1],"tree_param":{"num_deleted":"0","num_feature":"13","num_nodes":"13","size_leaf_vector":"0"}},{"base_weights":[1.5701355E-1,-1.1477499E-1,1.874301E-1,-2.6888344E-1,2.9918987E-1,-1.6771484E-3,2.2901057E-1,-0E0,-3.3610427E-1,1.0063883E-1,-2.2068608E-1,1.4697623E-1,2.8505448E-1],"categories":[],"categories_nodes":[],"categories_segments":[],"categories_sizes":[],"default_left":[true,true,true,true,false,true,true,false,false,false,false,false,false],"id":30,"left_children":[1,3,5,7,-1,9,11,-1,-1,-1,-1,-1,-1],"loss_changes":[1.0383372E0,9.097885E-1,8.7319565E-1,1.8074572E-1,0E0,4.927799E-1,3.7647867E-1,0E0,0E0,0E0,0E0,0E0,0E0],"parents":[2147483647,0,0,1,1,2,2,3,3,5,5,6,6],"right_children":[2,4,6,8,-1,10,12,-1,-1,-1,-1,-1,-1],"split_conditions":[5E-1,5E-1,5E-1,5E-1,2.9918987E-3,5E-1,5E-1,-0E0,-3.3610426E-3,1.0063882E-3,-2.2068608E-3,1.4697623E-3,2.8505446E-3],"split_indices":[1,3,2,2,0,6,3,0,0,0,0,0,0],"split_type":[0,0,0,0,0,0,0,0,0,0,0,0,0],"sum_hessian":[1.22E2,1.2E1,1.1E2,9E0,3E0,2E1,9E1,2E0,7E0,1.4E1,6E0,3.8E1,5.2E1],"tree_param":{"num_deleted":"0","num_feature":"13","num_nodes":"13","size_leaf_vector":"0"}},{"base_weights":[1.5546577E-1,-1.13655634E-1,1.855839E-1,-2.665307E-1,2.9694593E-1,-1.7175234E-3,2.2676793E-1,-0E0,-3.3316338E-1,9.969955E-2,-2.1879447E-1,2.8808638E-1,1.5161973E-1],"categories":[],"categories_nodes":[],"categories_segments":[],"categories_sizes":[],"default_left":[true,true,true,true,false,true,true,false,false,false,false,false,false],"id":31,"left_children":[1,3,5,7,-1,9,11,-1,-1,-1,-1,-1,-1],"loss_changes":[1.0180612E0,8.9516485E-1,8.566241E-1,1.7759657E-1,0E0,4.8413518E-1,3.7564564E-1,0E0,0E0,0E0,0E0,0E0,0E0],"parents":[2147483647,0,0,1,1,2,2,3,3,5,5,6,6],"right_children":[2,4,6,8,-1,10,12,-1,-1,-1,-1,-1,-1],"split_conditions":[5E-1,5E-1,5E-1,5E-1,2.9694592E-3,5E-1,5E-1,-0E0,-3.3316338E-3,9.969955E-4,-2.1879447E-3,2.8808638E-3,1.5161973E-3],"split_indices":[1,3,2,2,0,6,0,0,0,0,0,0,0],"split_type":[0,0,0,0,0,0,0,0,0,0,0,0,0],"sum_hessian":[1.22E2,1.2E1,1.1E2,9E0,3E0,2E1,9E1,2E0,7E0,1.4E1,6E0,4.8E1,4.2E1],"tree_param":{"num_deleted":"0","num_feature":"13","num_nodes":"13","size_leaf_vector":"0"}},{"base_weights":[1.5393423E-1,-1.12546936E-1,1.8375693E-1,-2.6419854E-1,2.9471886E-1,-1.7570711E-3,2.2454855E-1,-0E0,-3.3024818E-1,9.876902E-2,-2.169191E-1,1.1666819E-1,2.659058E-1],"categories":[],"categories_nodes":[],"categories_segments":[],"categories_sizes":[],"default_left":[true,true,true,true,false,true,true,false,false,false,false,false,false],"id":32,"left_children":[1,3,5,7,-1,9,11,-1,-1,-1,-1,-1,-1],"loss_changes":[9.981859E-1,8.80777E-1,8.4037757E-1,1.745022E-1,0E0,4.7564223E-1,3.749857E-1,0E0,0E0,0E0,0E0,0E0,0E0],"parents":[2147483647,0,0,1,1,2,2,3,3,5,5,6,6],"right_children":[2,4,6,8,-1,10,12,-1,-1,-1,-1,-1,-1],"split_conditions":[5E-1,5E-1,5E-1,5E-1,2.9471884E-3,5E-1,5E-1,-0E0,-3.3024817E-3,9.876902E-4,-2.169191E-3,1.1666819E-3,2.659058E-3],"split_indices":[1,3,2,2,0,6,4,0,0,0,0,0,0],"split_type":[0,0,0,0,0,0,0,0,0,0,0,0,0],"sum_hessian":[1.22E2,1.2E1,1.1E2,9E0,3E0,2E1,9E1,2E0,7E0,1.4E1,6E0,2.6E1,6.4E1],"tree_param":{"num_deleted":"0","num_feature":"13","num_nodes":"13","size_leaf_vector":"0"}},{"base_weights":[1.5241347E-1,-1.114488E-1,1.8194316E-1,-2.618868E-1,2.9250842E-1,-1.7957744E-3,2.2234508E-1,-0E0,-3.273585E-1,9.784715E-2,-2.1505979E-1,1.4124508E-1,2.7782726E-1],"categories":[],"categories_nodes":[],"categories_segments":[],"categories_sizes":[],"default_left":[true,true,true,true,false,true,true,false,false,false,false,false,false],"id":33,"left_children":[1,3,5,7,-1,9,11,-1,-1,-1,-1,-1,-1],"loss_changes":[9.7866535E-1,8.666209E-1,8.243971E-1,1.7146176E-1,0E0,4.6729827E-1,3.702221E-1,0E0,0E0,0E0,0E0,0E0,0E0],"parents":[2147483647,0,0,1,1,2,2,3,3,5,5,6,6],"right_children":[2,4,6,8,-1,10,12,-1,-1,-1,-1,-1,-1],"split_conditions":[5E-1,5E-1,5E-1,5E-1,2.9250842E-3,5E-1,5E-1,-0E0,-3.273585E-3,9.784715E-4,-2.1505977E-3,1.4124508E-3,2.7782726E-3],"split_indices":[1,3,2,2,0,6,3,0,0,0,0,0,0],"split_type":[0,0,0,0,0,0,0,0,0,0,0,0,0],"sum_hessian":[1.22E2,1.2E1,1.1E2,9E0,3E0,2E1,9E1,2E0,7E0,1.4E1,6E0,3.8E1,5.2E1],"tree_param":{"num_deleted":"0","num_feature":"13","num_nodes":"13","size_leaf_vector":"0"}},{"base_weights":[1.5091103E-1,-1.1036113E-1,1.8015091E-1,-2.595953E-1,2.903146E-1,-1.8336319E-3,2.2016767E-1,-0E0,-3.2449412E-1,9.6933916E-2,-2.1321642E-1,2.8103587E-1,1.4568608E-1],"categories":[],"categories_nodes":[],"categories_segments":[],"categories_sizes":[],"default_left":[true,true,true,true,false,true,true,false,false,false,false,false,false],"id":34,"left_children":[1,3,5,7,-1,9,11,-1,-1,-1,-1,-1,-1],"loss_changes":[9.595485E-1,8.526931E-1,8.087535E-1,1.6847432E-1,0E0,4.5910084E-1,3.7161112E-1,0E0,0E0,0E0,0E0,0E0,0E0],"parents":[2147483647,0,0,1,1,2,2,3,3,5,5,6,6],"right_children":[2,4,6,8,-1,10,12,-1,-1,-1,-1,-1,-1],"split_conditions":[5E-1,5E-1,5E-1,5E-1,2.903146E-3,5E-1,5E-1,-0E0,-3.2449411E-3,9.6933916E-4,-2.132164E-3,2.8103585E-3,1.4568607E-3],"split_indices":[1,3,2,2,0,6,0,0,0,0,0,0,0],"split_type":[0,0,0,0,0,0,0,0,0,0,0,0,0],"sum_hessian":[1.22E2,1.2E1,1.1E2,9E0,3E0,2E1,9E1,2E0,7E0,1.4E1,6E0,4.8E1,4.2E1],"tree_param":{"num_deleted":"0","num_feature":"13","num_nodes":"13","size_leaf_vector":"0"}},{"base_weights":[1.4942439E-1,-1.0928381E-1,1.7837738E-1,-2.5732386E-1,2.8813726E-1,-1.8706719E-3,2.1801288E-1,-0E0,-3.2165483E-1,9.6029185E-2,-2.1138884E-1,1.1147326E-1,2.5891376E-1],"categories":[],"categories_nodes":[],"categories_segments":[],"categories_sizes":[],"default_left":[true,true,true,true,false,true,true,false,false,false,false,false,false],"id":35,"left_children":[1,3,5,7,-1,9,11,-1,-1,-1,-1,-1,-1],"loss_changes":[9.408102E-1,8.389896E-1,7.934165E-1,1.655389E-1,0E0,4.510473E-1,3.6767673E-1,0E0,0E0,0E0,0E0,0E0,0E0],"parents":[2147483647,0,0,1,1,2,2,3,3,5,5,6,6],"right_children":[2,4,6,8,-1,10,12,-1,-1,-1,-1,-1,-1],"split_conditions":[5E-1,5E-1,5E-1,5E-1,2.8813726E-3,5E-1,5E-1,-0E0,-3.2165481E-3,9.602918E-4,-2.1138883E-3,1.1147326E-3,2.5891375E-3],"split_indices":[1,3,2,2,0,6,4,0,0,0,0,0,0],"split_type":[0,0,0,0,0,0,0,0,0,0,0,0,0],"sum_hessian":[1.22E2,1.2E1,1.1E2,9E0,3E0,2E1,9E1,2E0,7E0,1.4E1,6E0,2.6E1,6.4E1],"tree_param":{"num_deleted":"0","num_feature":"13","num_nodes":"13","size_leaf_vector":"0"}},{"base_weights":[1.4794813E-1,-1.0821676E-1,1.7661656E-1,-2.550723E-1,2.8597623E-1,-1.9069002E-3,2.1587345E-1,-0E0,-3.1884035E-1,9.513292E-2,-2.0957695E-1,2.7619788E-1,1.4211133E-1],"categories":[],"categories_nodes":[],"categories_segments":[],"categories_sizes":[],"default_left":[true,true,true,true,false,true,true,false,false,false,false,false,false],"id":36,"left_children":[1,3,5,7,-1,9,11,-1,-1,-1,-1,-1,-1],"loss_changes":[9.224057E-1,8.25507E-1,7.7832985E-1,1.626547E-1,0E0,4.431352E-1,3.656683E-1,0E0,0E0,0E0,0E0,0E0,0E0],"parents":[2147483647,0,0,1,1,2,2,3,3,5,5,6,6],"right_children":[2,4,6,8,-1,10,12,-1,-1,-1,-1,-1,-1],"split_conditions":[5E-1,5E-1,5E-1,5E-1,2.8597622E-3,5E-1,5E-1,-0E0,-3.1884036E-3,9.5132913E-4,-2.0957694E-3,2.7619787E-3,1.4211133E-3],"split_indices":[1,3,2,2,0,6,0,0,0,0,0,0,0],"split_type":[0,0,0,0,0,0,0,0,0,0,0,0,0],"sum_hessian":[1.22E2,1.2E1,1.1E2,9E0,3E0,2E1,9E1,2E0,7E0,1.4E1,6E0,4.8E1,4.2E1],"tree_param":{"num_deleted":"0","num_feature":"13","num_nodes":"13","size_leaf_vector":"0"}},{"base_weights":[1.464907E-1,-1.07159875E-1,1.748778E-1,-2.528404E-1,2.8383142E-1,-1.942345E-3,2.137607E-1,-0E0,-3.160505E-1,9.424499E-2,-2.0778058E-1,1.3352002E-1,2.687725E-1],"categories":[],"categories_nodes":[],"categories_segments":[],"categories_sizes":[],"default_left":[true,true,true,true,false,true,true,false,false,false,false,false,false],"id":37,"left_children":[1,3,5,7,-1,9,11,-1,-1,-1,-1,-1,-1],"loss_changes":[9.0438914E-1,8.122417E-1,7.6357126E-1,1.5982062E-1,0E0,4.3536198E-1,3.658042E-1,0E0,0E0,0E0,0E0,0E0,0E0],"parents":[2147483647,0,0,1,1,2,2,3,3,5,5,6,6],"right_children":[2,4,6,8,-1,10,12,-1,-1,-1,-1,-1,-1],"split_conditions":[5E-1,5E-1,5E-1,5E-1,2.838314E-3,5E-1,5E-1,-0E0,-3.1605049E-3,9.4244984E-4,-2.0778058E-3,1.3352002E-3,2.687725E-3],"split_indices":[1,3,2,2,0,6,3,0,0,0,0,0,0],"split_type":[0,0,0,0,0,0,0,0,0,0,0,0,0],"sum_hessian":[1.22E2,1.2E1,1.1E2,9E0,3E0,2E1,9E1,2E0,7E0,1.4E1,6E0,3.8E1,5.2E1],"tree_param":{"num_deleted":"0","num_feature":"13","num_nodes":"13","size_leaf_vector":"0"}},{"base_weights":[1.4504664E-1,-1.0611306E-1,1.7315501E-1,-2.5062805E-1,2.8170267E-1,-1.9769953E-3,2.1166728E-1,-0E0,-3.1328505E-1,9.336535E-2,-2.059996E-1,1.0644964E-1,2.5211665E-1],"categories":[],"categories_nodes":[],"categories_segments":[],"categories_sizes":[],"default_left":[true,true,true,true,false,true,true,false,false,false,false,false,false],"id":38,"left_children":[1,3,5,7,-1,9,11,-1,-1,-1,-1,-1,-1],"loss_changes":[8.867159E-1,7.9919E-1,7.490835E-1,1.5703607E-1,0E0,4.2772508E-1,3.6045694E-1,0E0,0E0,0E0,0E0,0E0,0E0],"parents":[2147483647,0,0,1,1,2,2,3,3,5,5,6,6],"right_children":[2,4,6,8,-1,10,12,-1,-1,-1,-1,-1,-1],"split_conditions":[5E-1,5E-1,5E-1,5E-1,2.8170266E-3,5E-1,5E-1,-0E0,-3.1328504E-3,9.3365344E-4,-2.059996E-3,1.0644963E-3,2.5211663E-3],"split_indices":[1,3,2,2,0,6,4,0,0,0,0,0,0],"split_type":[0,0,0,0,0,0,0,0,0,0,0,0,0],"sum_hessian":[1.22E2,1.2E1,1.1E2,9E0,3E0,2E1,9E1,2E0,7E0,1.4E1,6E0,2.6E1,6.4E1],"tree_param":{"num_deleted":"0","num_feature":"13","num_nodes":"13","size_leaf_vector":"0"}},{"base_weights":[1.436136E-1,-1.0507622E-1,1.7144562E-1,-2.4843505E-1,2.795899E-1,-2.0108563E-3,2.0959002E-1,-0E0,-3.105438E-1,9.2493944E-2,-2.0423388E-1,2.6947048E-1,1.3647996E-1],"categories":[],"categories_nodes":[],"categories_segments":[],"categories_sizes":[],"default_left":[true,true,true,true,false,true,true,false,false,false,false,false,false],"id":39,"left_children":[1,3,5,7,-1,9,11,-1,-1,-1,-1,-1,-1],"loss_changes":[8.693645E-1,7.863486E-1,7.348411E-1,1.5429997E-1,0E0,4.202224E-1,3.6160803E-1,0E0,0E0,0E0,0E0,0E0,0E0],"parents":[2147483647,0,0,1,1,2,2,3,3,5,5,6,6],"right_children":[2,4,6,8,-1,10,12,-1,-1,-1,-1,-1,-1],"split_conditions":[5E-1,5E-1,5E-1,5E-1,2.7958988E-3,5E-1,5E-1,-0E0,-3.105438E-3,9.249394E-4,-2.0423387E-3,2.6947048E-3,1.3647996E-3],"split_indices":[1,3,2,2,0,6,0,0,0,0,0,0,0],"split_type":[0,0,0,0,0,0,0,0,0,0,0,0,0],"sum_hessian":[1.22E2,1.2E1,1.1E2,9E0,3E0,2E1,9E1,2E0,7E0,1.4E1,6E0,4.8E1,4.2E1],"tree_param":{"num_deleted":"0","num_feature":"13","num_nodes":"13","size_leaf_vector":"0"}},{"base_weights":[1.4219885E-1,-1.0404927E-1,1.6975765E-1,-2.4626125E-1,2.77493E-1,-2.043957E-3,2.0753871E-1,-0E0,-3.0782655E-1,9.163067E-2,-2.024833E-1,1.2820867E-1,2.6199782E-1],"categories":[],"categories_nodes":[],"categories_segments":[],"categories_sizes":[],"default_left":[true,true,true,true,false,true,true,false,false,false,false,false,false],"id":40,"left_children":[1,3,5,7,-1,9,11,-1,-1,-1,-1,-1,-1],"loss_changes":[8.5237837E-1,7.737142E-1,7.2090816E-1,1.516115E-1,0E0,4.1285133E-1,3.5955167E-1,0E0,0E0,0E0,0E0,0E0,0E0],"parents":[2147483647,0,0,1,1,2,2,3,3,5,5,6,6],"right_children":[2,4,6,8,-1,10,12,-1,-1,-1,-1,-1,-1],"split_conditions":[5E-1,5E-1,5E-1,5E-1,2.7749299E-3,5E-1,5E-1,-0E0,-3.0782653E-3,9.163066E-4,-2.0248329E-3,1.2820866E-3,2.619978E-3],"split_indices":[1,3,2,2,0,6,3,0,0,0,0,0,0],"split_type":[0,0,0,0,0,0,0,0,0,0,0,0,0],"sum_hessian":[1.22E2,1.2E1,1.1E2,9E0,3E0,2E1,9E1,2E0,7E0,1.4E1,6E0,3.8E1,5.2E1],"tree_param":{"num_deleted":"0","num_feature":"13","num_nodes":"13","size_leaf_vector":"0"}},{"base_weights":[1.4079711E-1,-1.0303213E-1,1.6808523E-1,-2.4410647E-1,2.7541178E-1,-2.0763022E-3,2.0550619E-1,-0E0,-3.051331E-1,9.077545E-2,-2.0074773E-1,2.6489222E-1,1.3305452E-1],"categories":[],"categories_nodes":[],"categories_segments":[],"categories_sizes":[],"default_left":[true,true,true,true,false,true,true,false,false,false,false,false,false],"id":41,"left_children":[1,3,5,7,-1,9,11,-1,-1,-1,-1,-1,-1],"loss_changes":[8.357165E-1,7.612832E-1,7.072313E-1,1.4896995E-1,0E0,4.0560973E-1,3.562932E-1,0E0,0E0,0E0,0E0,0E0,0E0],"parents":[2147483647,0,0,1,1,2,2,3,3,5,5,6,6],"right_children":[2,4,6,8,-1,10,12,-1,-1,-1,-1,-1,-1],"split_conditions":[5E-1,5E-1,5E-1,5E-1,2.7541178E-3,5E-1,5E-1,-0E0,-3.051331E-3,9.077545E-4,-2.0074772E-3,2.6489221E-3,1.3305452E-3],"split_indices":[1,3,2,2,0,6,0,0,0,0,0,0,0],"split_type":[0,0,0,0,0,0,0,0,0,0,0,0,0],"sum_hessian":[1.22E2,1.2E1,1.1E2,9E0,3E0,2E1,9E1,2E0,7E0,1.4E1,6E0,4.8E1,4.2E1],"tree_param":{"num_deleted":"0","num_feature":"13","num_nodes":"13","size_leaf_vector":"0"}},{"base_weights":[1.3941011E-1,-1.0202466E-1,1.6643031E-1,-2.4197054E-1,2.733462E-1,-2.107921E-3,2.0349485E-1,-0E0,-3.0246317E-1,8.992819E-2,-1.9902703E-1,9.957809E-2,2.4352957E-1],"categories":[],"categories_nodes":[],"categories_segments":[],"categories_sizes":[],"default_left":[true,true,true,true,false,true,true,false,false,false,false,false,false],"id":42,"left_children":[1,3,5,7,-1,9,11,-1,-1,-1,-1,-1,-1],"loss_changes":[8.193848E-1,7.490526E-1,6.938226E-1,1.4637434E-1,0E0,3.9849517E-1,3.543353E-1,0E0,0E0,0E0,0E0,0E0,0E0],"parents":[2147483647,0,0,1,1,2,2,3,3,5,5,6,6],"right_children":[2,4,6,8,-1,10,12,-1,-1,-1,-1,-1,-1],"split_conditions":[5E-1,5E-1,5E-1,5E-1,2.7334618E-3,5E-1,5E-1,-0E0,-3.0246316E-3,8.992819E-4,-1.9902703E-3,9.957809E-4,2.4352956E-3],"split_indices":[1,3,2,2,0,6,4,0,0,0,0,0,0],"split_type":[0,0,0,0,0,0,0,0,0,0,0,0,0],"sum_hessian":[1.22E2,1.2E1,1.1E2,9E0,3E0,2E1,9E1,2E0,7E0,1.4E1,6E0,2.6E1,6.4E1],"tree_param":{"num_deleted":"0","num_feature":"13","num_nodes":"13","size_leaf_vector":"0"}},{"base_weights":[1.3803269E-1,-1.010268E-1,1.6478711E-1,-2.398533E-1,2.7129608E-1,-2.1387793E-3,2.0149763E-1,-0E0,-2.998166E-1,8.908889E-2,-1.9732109E-1,1.2306633E-1,2.554094E-1],"categories":[],"categories_nodes":[],"categories_segments":[],"categories_sizes":[],"default_left":[true,true,true,true,false,true,true,false,false,false,false,false,false],"id":43,"left_children":[1,3,5,7,-1,9,11,-1,-1,-1,-1,-1,-1],"loss_changes":[8.033433E-1,7.370189E-1,6.806319E-1,1.4382398E-1,0E0,3.915057E-1,3.533492E-1,0E0,0E0,0E0,0E0,0E0,0E0],"parents":[2147483647,0,0,1,1,2,2,3,3,5,5,6,6],"right_children":[2,4,6,8,-1,10,12,-1,-1,-1,-1,-1,-1],"split_conditions":[5E-1,5E-1,5E-1,5E-1,2.7129608E-3,5E-1,5E-1,-0E0,-2.998166E-3,8.9088886E-4,-1.9732108E-3,1.2306633E-3,2.554094E-3],"split_indices":[1,3,2,2,0,6,3,0,0,0,0,0,0],"split_type":[0,0,0,0,0,0,0,0,0,0,0,0,0],"sum_hessian":[1.22E2,1.2E1,1.1E2,9E0,3E0,2E1,9E1,2E0,7E0,1.4E1,6E0,3.8E1,5.2E1],"tree_param":{"num_deleted":"0","num_feature":"13","num_nodes":"13","size_leaf_vector":"0"}},{"base_weights":[1.36672E-1,-1.0003848E-1,1.6316357E-1,-2.3775457E-1,2.6926136E-1,-2.1689448E-3,1.9952422E-1,-0E0,-2.971932E-1,8.8257365E-2,-1.9562976E-1,2.5847167E-1,1.2771149E-1],"categories":[],"categories_nodes":[],"categories_segments":[],"categories_sizes":[],"default_left":[true,true,true,true,false,true,true,false,false,false,false,false,false],"id":44,"left_children":[1,3,5,7,-1,9,11,-1,-1,-1,-1,-1,-1],"loss_changes":[7.876351E-1,7.25179E-1,6.677201E-1,1.4131808E-1,0E0,3.846387E-1,3.522091E-1,0E0,0E0,0E0,0E0,0E0,0E0],"parents":[2147483647,0,0,1,1,2,2,3,3,5,5,6,6],"right_children":[2,4,6,8,-1,10,12,-1,-1,-1,-1,-1,-1],"split_conditions":[5E-1,5E-1,5E-1,5E-1,2.6926135E-3,5E-1,5E-1,-0E0,-2.9719318E-3,8.8257366E-4,-1.9562976E-3,2.5847165E-3,1.2771148E-3],"split_indices":[1,3,2,2,0,6,0,0,0,0,0,0,0],"split_type":[0,0,0,0,0,0,0,0,0,0,0,0,0],"sum_hessian":[1.22E2,1.2E1,1.1E2,9E0,3E0,2E1,9E1,2E0,7E0,1.4E1,6E0,4.8E1,4.2E1],"tree_param":{"num_deleted":"0","num_feature":"13","num_nodes":"13","size_leaf_vector":"0"}},{"base_weights":[1.353257E-1,-9.905959E-2,1.6155708E-1,-2.3567422E-1,2.672419E-1,-2.198384E-3,1.9757146E-1,-0E0,-2.9459277E-1,8.743364E-2,-1.9395295E-1,1.1985173E-1,2.5103366E-1],"categories":[],"categories_nodes":[],"categories_segments":[],"categories_sizes":[],"default_left":[true,true,true,true,false,true,true,false,false,false,false,false,false],"id":45,"left_children":[1,3,5,7,-1,9,11,-1,-1,-1,-1,-1,-1],"loss_changes":[7.7223825E-1,7.135298E-1,6.5506244E-1,1.3885587E-1,0E0,3.7789237E-1,3.480246E-1,0E0,0E0,0E0,0E0,0E0,0E0],"parents":[2147483647,0,0,1,1,2,2,3,3,5,5,6,6],"right_children":[2,4,6,8,-1,10,12,-1,-1,-1,-1,-1,-1],"split_conditions":[5E-1,5E-1,5E-1,5E-1,2.672419E-3,5E-1,5E-1,-0E0,-2.9459277E-3,8.743364E-4,-1.9395294E-3,1.1985173E-3,2.5103367E-3],"split_indices":[1,3,2,2,0,6,3,0,0,0,0,0,0],"split_type":[0,0,0,0,0,0,0,0,0,0,0,0,0],"sum_hessian":[1.22E2,1.2E1,1.1E2,9E0,3E0,2E1,9E1,2E0,7E0,1.4E1,6E0,3.8E1,5.2E1],"tree_param":{"num_deleted":"0","num_feature":"13","num_nodes":"13","size_leaf_vector":"0"}},{"base_weights":[1.3399172E-1,-9.809004E-2,1.5996534E-1,-2.3361208E-1,2.6523757E-1,-2.2271248E-3,1.956365E-1,-0E0,-2.9201508E-1,8.661759E-2,-1.922905E-1,2.5409636E-1,1.24469765E-1],"categories":[],"categories_nodes":[],"categories_segments":[],"categories_sizes":[],"default_left":[true,true,true,true,false,true,true,false,false,false,false,false,false],"id":46,"left_children":[1,3,5,7,-1,9,11,-1,-1,-1,-1,-1,-1],"loss_changes":[7.5713515E-1,7.020683E-1,6.426368E-1,1.3643646E-1,0E0,3.7126437E-1,3.469689E-1,0E0,0E0,0E0,0E0,0E0,0E0],"parents":[2147483647,0,0,1,1,2,2,3,3,5,5,6,6],"right_children":[2,4,6,8,-1,10,12,-1,-1,-1,-1,-1,-1],"split_conditions":[5E-1,5E-1,5E-1,5E-1,2.6523757E-3,5E-1,5E-1,-0E0,-2.9201508E-3,8.6617586E-4,-1.922905E-3,2.5409635E-3,1.2446976E-3],"split_indices":[1,3,2,2,0,6,0,0,0,0,0,0,0],"split_type":[0,0,0,0,0,0,0,0,0,0,0,0,0],"sum_hessian":[1.22E2,1.2E1,1.1E2,9E0,3E0,2E1,9E1,2E0,7E0,1.4E1,6E0,4.8E1,4.2E1],"tree_param":{"num_deleted":"0","num_feature":"13","num_nodes":"13","size_leaf_vector":"0"}},{"base_weights":[1.3267182E-1,-9.7129725E-2,1.5839027E-1,-2.3156796E-1,2.6324832E-1,-2.255173E-3,1.9372174E-1,-0E0,-2.8945994E-1,8.580916E-2,-1.9064228E-1,9.133139E-2,2.3327278E-1],"categories":[],"categories_nodes":[],"categories_segments":[],"categories_sizes":[],"default_left":[true,true,true,true,false,true,true,false,false,false,false,false,false],"id":47,"left_children":[1,3,5,7,-1,9,11,-1,-1,-1,-1,-1,-1],"loss_changes":[7.423315E-1,6.9079155E-1,6.3045526E-1,1.3405931E-1,0E0,3.6475274E-1,3.4721255E-1,0E0,0E0,0E0,0E0,0E0,0E0],"parents":[2147483647,0,0,1,1,2,2,3,3,5,5,6,6],"right_children":[2,4,6,8,-1,10,12,-1,-1,-1,-1,-1,-1],"split_conditions":[5E-1,5E-1,5E-1,5E-1,2.6324831E-3,5E-1,5E-1,-0E0,-2.8945995E-3,8.580915E-4,-1.9064228E-3,9.133139E-4,2.3327277E-3],"split_indices":[1,3,2,2,0,6,4,0,0,0,0,0,0],"split_type":[0,0,0,0,0,0,0,0,0,0,0,0,0],"sum_hessian":[1.22E2,1.2E1,1.1E2,9E0,3E0,2E1,9E1,2E0,7E0,1.4E1,6E0,2.6E1,6.4E1],"tree_param":{"num_deleted":"0","num_feature":"13","num_nodes":"13","size_leaf_vector":"0"}},{"base_weights":[1.3136081E-1,-9.617859E-2,1.5682615E-1,-2.2954173E-1,2.6127392E-1,-2.2825273E-3,1.9182017E-1,-3.8958386E-2,-3.0565482E-1,8.500829E-2,-1.8900822E-1,1.14979684E-1,2.4474393E-1],"categories":[],"categories_nodes":[],"categories_segments":[],"categories_sizes":[],"default_left":[true,true,true,true,false,true,true,false,false,false,false,false,false],"id":48,"left_children":[1,3,5,7,-1,9,11,-1,-1,-1,-1,-1,-1],"loss_changes":[7.2779036E-1,6.796962E-1,6.184697E-1,1.3315111E-1,0E0,3.583555E-1,3.4192777E-1,0E0,0E0,0E0,0E0,0E0,0E0],"parents":[2147483647,0,0,1,1,2,2,3,3,5,5,6,6],"right_children":[2,4,6,8,-1,10,12,-1,-1,-1,-1,-1,-1],"split_conditions":[5E-1,5E-1,5E-1,5E-1,2.612739E-3,5E-1,5E-1,-3.8958385E-4,-3.056548E-3,8.500829E-4,-1.8900821E-3,1.1497968E-3,2.4474391E-3],"split_indices":[1,3,2,6,0,6,3,0,0,0,0,0,0],"split_type":[0,0,0,0,0,0,0,0,0,0,0,0,0],"sum_hessian":[1.22E2,1.2E1,1.1E2,9E0,3E0,2E1,9E1,3E0,6E0,1.4E1,6E0,3.8E1,5.2E1],"tree_param":{"num_deleted":"0","num_feature":"13","num_nodes":"13","size_leaf_vector":"0"}},{"base_weights":[1.3006124E-1,-9.52809E-2,1.5528095E-1,-2.2759093E-1,2.5931442E-1,-2.3092201E-3,1.8994151E-1,1.1487106E-3,-2.8491944E-1,8.421489E-2,-1.8738814E-1,2.4796827E-1,1.1940076E-1],"categories":[],"categories_nodes":[],"categories_segments":[],"categories_sizes":[],"default_left":[true,true,true,true,false,true,true,false,false,false,false,false,false],"id":49,"left_children":[1,3,5,7,-1,9,11,-1,-1,-1,-1,-1,-1],"loss_changes":[7.138119E-1,6.6893226E-1,6.0673904E-1,1.3146025E-1,0E0,3.520704E-1,3.428781E-1,0E0,0E0,0E0,0E0,0E0,0E0],"parents":[2147483647,0,0,1,1,2,2,3,3,5,5,6,6],"right_children":[2,4,6,8,-1,10,12,-1,-1,-1,-1,-1,-1],"split_conditions":[5E-1,5E-1,5E-1,5E-1,2.593144E-3,5E-1,5E-1,1.1487105E-5,-2.8491945E-3,8.4214885E-4,-1.8738813E-3,2.4796827E-3,1.1940076E-3],"split_indices":[1,3,2,2,0,6,0,0,0,0,0,0,0],"split_type":[0,0,0,0,0,0,0,0,0,0,0,0,0],"sum_hessian":[1.22E2,1.2E1,1.1E2,9E0,3E0,2E1,9E1,2E0,7E0,1.4E1,6E0,4.8E1,4.2E1],"tree_param":{"num_deleted":"0","num_feature":"13","num_nodes":"13","size_leaf_vector":"0"}},{"base_weights":[1.2878013E-1,-9.43469E-2,1.5375194E-1,-2.255988E-1,2.5736952E-1,-2.3352604E-3,1.8808249E-1,-3.724447E-2,-3.0100143E-1,8.3428875E-2,-1.8578194E-1,2.1970782E-1,6.4827174E-2],"categories":[],"categories_nodes":[],"categories_segments":[],"categories_sizes":[],"default_left":[true,true,true,true,false,true,true,false,false,false,false,false,false],"id":50,"left_children":[1,3,5,7,-1,9,11,-1,-1,-1,-1,-1,-1],"loss_changes":[6.998482E-1,6.5818703E-1,5.952389E-1,1.3081348E-1,0E0,3.4589562E-1,3.4047413E-1,0E0,0E0,0E0,0E0,0E0,0E0],"parents":[2147483647,0,0,1,1,2,2,3,3,5,5,6,6],"right_children":[2,4,6,8,-1,10,12,-1,-1,-1,-1,-1,-1],"split_conditions":[5E-1,5E-1,5E-1,5E-1,2.573695E-3,5E-1,5E-1,-3.724447E-4,-3.0100143E-3,8.342887E-4,-1.8578194E-3,2.1970782E-3,6.482717E-4],"split_indices":[1,3,2,6,0,6,5,0,0,0,0,0,0],"split_type":[0,0,0,0,0,0,0,0,0,0,0,0,0],"sum_hessian":[1.22E2,1.2E1,1.1E2,9E0,3E0,2E1,9E1,3E0,6E0,1.4E1,6E0,7.1E1,1.9E1],"tree_param":{"num_deleted":"0","num_feature":"13","num_nodes":"13","size_leaf_vector":"0"}},{"base_weights":[1.2750056E-1,-9.346565E-2,1.5223083E-1,-2.2368106E-1,2.5543928E-1,-2.360649E-3,1.8623292E-1,2.2685428E-3,-2.80452E-1,8.265021E-2,-1.8418954E-1,8.518047E-2,2.2534344E-1],"categories":[],"categories_nodes":[],"categories_segments":[],"categories_sizes":[],"default_left":[true,true,true,true,false,true,true,false,false,false,false,false,false],"id":51,"left_children":[1,3,5,7,-1,9,11,-1,-1,-1,-1,-1,-1],"loss_changes":[6.8636847E-1,6.477633E-1,5.839038E-1,1.2891E-1,0E0,3.398293E-1,3.404565E-1,0E0,0E0,0E0,0E0,0E0,0E0],"parents":[2147483647,0,0,1,1,2,2,3,3,5,5,6,6],"right_children":[2,4,6,8,-1,10,12,-1,-1,-1,-1,-1,-1],"split_conditions":[5E-1,5E-1,5E-1,5E-1,2.5543927E-3,5E-1,5E-1,2.2685426E-5,-2.80452E-3,8.2650204E-4,-1.8418954E-3,8.518047E-4,2.2534344E-3],"split_indices":[1,3,2,2,0,6,4,0,0,0,0,0,0],"split_type":[0,0,0,0,0,0,0,0,0,0,0,0,0],"sum_hessian":[1.22E2,1.2E1,1.1E2,9E0,3E0,2E1,9E1,2E0,7E0,1.4E1,6E0,2.6E1,6.4E1],"tree_param":{"num_deleted":"0","num_feature":"13","num_nodes":"13","size_leaf_vector":"0"}},{"base_weights":[1.262407E-1,-9.25485E-2,1.5072736E-1,-2.2172242E-1,2.5352347E-1,-2.3853765E-3,1.8440473E-1,-3.556855E-2,-2.9642144E-1,8.1878826E-2,-1.8261077E-1,2.4192469E-1,1.1457025E-1],"categories":[],"categories_nodes":[],"categories_segments":[],"categories_sizes":[],"default_left":[true,true,true,true,false,true,true,false,false,false,false,false,false],"id":52,"left_children":[1,3,5,7,-1,9,11,-1,-1,-1,-1,-1,-1],"loss_changes":[6.729119E-1,6.37357E-1,5.72804E-1,1.2851182E-1,0E0,3.338695E-1,3.3781815E-1,0E0,0E0,0E0,0E0,0E0,0E0],"parents":[2147483647,0,0,1,1,2,2,3,3,5,5,6,6],"right_children":[2,4,6,8,-1,10,12,-1,-1,-1,-1,-1,-1],"split_conditions":[5E-1,5E-1,5E-1,5E-1,2.5352347E-3,5E-1,5E-1,-3.556855E-4,-2.9642144E-3,8.1878825E-4,-1.8261076E-3,2.4192468E-3,1.1457026E-3],"split_indices":[1,3,2,6,0,6,0,0,0,0,0,0,0],"split_type":[0,0,0,0,0,0,0,0,0,0,0,0,0],"sum_hessian":[1.22E2,1.2E1,1.1E2,9E0,3E0,2E1,9E1,3E0,6E0,1.4E1,6E0,4.8E1,4.2E1],"tree_param":{"num_deleted":"0","num_feature":"13","num_nodes":"13","size_leaf_vector":"0"}},{"base_weights":[1.2499271E-1,-9.168336E-2,1.4924313E-1,-2.1983719E-1,2.5162205E-1,-2.409488E-3,1.8259986E-1,3.3600628E-3,-2.760565E-1,8.111463E-2,-1.8104552E-1,1.0667023E-1,2.3502731E-1],"categories":[],"categories_nodes":[],"categories_segments":[],"categories_sizes":[],"default_left":[true,true,true,true,false,true,true,false,false,false,false,false,false],"id":53,"left_children":[1,3,5,7,-1,9,11,-1,-1,-1,-1,-1,-1],"loss_changes":[6.599847E-1,6.2726265E-1,5.619483E-1,1.2640753E-1,0E0,3.2801417E-1,3.3718204E-1,0E0,0E0,0E0,0E0,0E0,0E0],"parents":[2147483647,0,0,1,1,2,2,3,3,5,5,6,6],"right_children":[2,4,6,8,-1,10,12,-1,-1,-1,-1,-1,-1],"split_conditions":[5E-1,5E-1,5E-1,5E-1,2.5162206E-3,5E-1,5E-1,3.3600627E-5,-2.760565E-3,8.111463E-4,-1.8104551E-3,1.0667023E-3,2.350273E-3],"split_indices":[1,3,2,2,0,6,3,0,0,0,0,0,0],"split_type":[0,0,0,0,0,0,0,0,0,0,0,0,0],"sum_hessian":[1.22E2,1.2E1,1.1E2,9E0,3E0,2E1,9E1,2E0,7E0,1.4E1,6E0,3.8E1,5.2E1],"tree_param":{"num_deleted":"0","num_feature":"13","num_nodes":"13","size_leaf_vector":"0"}},{"base_weights":[1.2376074E-1,-9.078273E-2,1.4777249E-1,-2.1791151E-1,2.497349E-1,-2.4329878E-3,1.8081142E-1,-3.39299E-2,-2.9191366E-1,8.0357544E-2,-1.794937E-1,2.1208806E-1,5.9174906E-2],"categories":[],"categories_nodes":[],"categories_segments":[],"categories_sizes":[],"default_left":[true,true,true,true,false,true,true,false,false,false,false,false,false],"id":54,"left_children":[1,3,5,7,-1,9,11,-1,-1,-1,-1,-1,-1],"loss_changes":[6.470578E-1,6.1718476E-1,5.5129147E-1,1.262457E-1,0E0,3.2226163E-1,3.3364844E-1,0E0,0E0,0E0,0E0,0E0,0E0],"parents":[2147483647,0,0,1,1,2,2,3,3,5,5,6,6],"right_children":[2,4,6,8,-1,10,12,-1,-1,-1,-1,-1,-1],"split_conditions":[5E-1,5E-1,5E-1,5E-1,2.497349E-3,5E-1,5E-1,-3.3929897E-4,-2.9191365E-3,8.0357544E-4,-1.794937E-3,2.1208806E-3,5.9174903E-4],"split_indices":[1,3,2,6,0,6,5,0,0,0,0,0,0],"split_type":[0,0,0,0,0,0,0,0,0,0,0,0,0],"sum_hessian":[1.22E2,1.2E1,1.1E2,9E0,3E0,2E1,9E1,3E0,6E0,1.4E1,6E0,7.1E1,1.9E1],"tree_param":{"num_deleted":"0","num_feature":"13","num_nodes":"13","size_leaf_vector":"0"}},{"base_weights":[1.22530945E-1,-8.993346E-2,1.4631028E-1,-2.1605824E-1,2.4786186E-1,-2.455876E-3,1.7903313E-1,-3.3675432E-2,-2.8941151E-1,7.9607524E-2,-1.7795518E-1,7.929679E-2,2.1770771E-1],"categories":[],"categories_nodes":[],"categories_segments":[],"categories_sizes":[],"default_left":[true,true,true,true,false,true,true,false,false,false,false,false,false],"id":55,"left_children":[1,3,5,7,-1,9,11,-1,-1,-1,-1,-1,-1],"loss_changes":[6.3458633E-1,6.0740924E-1,5.407934E-1,1.2403777E-1,0E0,3.1661004E-1,3.337474E-1,0E0,0E0,0E0,0E0,0E0,0E0],"parents":[2147483647,0,0,1,1,2,2,3,3,5,5,6,6],"right_children":[2,4,6,8,-1,10,12,-1,-1,-1,-1,-1,-1],"split_conditions":[5E-1,5E-1,5E-1,5E-1,2.4786186E-3,5E-1,5E-1,-3.367543E-4,-2.8941152E-3,7.960752E-4,-1.7795517E-3,7.9296785E-4,2.177077E-3],"split_indices":[1,3,2,6,0,6,4,0,0,0,0,0,0],"split_type":[0,0,0,0,0,0,0,0,0,0,0,0,0],"sum_hessian":[1.22E2,1.2E1,1.1E2,9E0,3E0,2E1,9E1,3E0,6E0,1.4E1,6E0,2.6E1,6.4E1],"tree_param":{"num_deleted":"0","num_feature":"13","num_nodes":"13","size_leaf_vector":"0"}},{"base_weights":[1.2131568E-1,-8.909199E-2,1.4486508E-1,-2.1422075E-1,2.4600291E-1,-2.4781511E-3,1.7727545E-1,5.5007734E-3,-2.6983872E-1,7.886452E-2,-1.7642985E-1,2.3438057E-1,1.0807947E-1],"categories":[],"categories_nodes":[],"categories_segments":[],"categories_sizes":[],"default_left":[true,true,true,true,false,true,true,false,false,false,false,false,false],"id":56,"left_children":[1,3,5,7,-1,9,11,-1,-1,-1,-1,-1,-1],"loss_changes":[6.2236834E-1,5.977891E-1,5.30514E-1,1.23688966E-1,0E0,3.1105766E-1,3.3424973E-1,0E0,0E0,0E0,0E0,0E0,0E0],"parents":[2147483647,0,0,1,1,2,2,3,3,5,5,6,6],"right_children":[2,4,6,8,-1,10,12,-1,-1,-1,-1,-1,-1],"split_conditions":[5E-1,5E-1,5E-1,5E-1,2.460029E-3,5E-1,5E-1,5.5007735E-5,-2.6983873E-3,7.886452E-4,-1.7642985E-3,2.3438057E-3,1.0807947E-3],"split_indices":[1,3,2,2,0,6,0,0,0,0,0,0,0],"split_type":[0,0,0,0,0,0,0,0,0,0,0,0,0],"sum_hessian":[1.22E2,1.2E1,1.1E2,9E0,3E0,2E1,9E1,2E0,7E0,1.4E1,6E0,4.8E1,4.2E1],"tree_param":{"num_deleted":"0","num_feature":"13","num_nodes":"13","size_leaf_vector":"0"}},{"base_weights":[1.2012093E-1,-8.8215165E-2,1.4343847E-1,-2.1234287E-1,2.4415791E-1,-2.4998188E-3,1.755403E-1,-3.2087415E-2,-2.850113E-1,7.8128465E-2,-1.749176E-1,1.0056965E-1,2.2739531E-1],"categories":[],"categories_nodes":[],"categories_segments":[],"categories_sizes":[],"default_left":[true,true,true,true,false,true,true,false,false,false,false,false,false],"id":57,"left_children":[1,3,5,7,-1,9,11,-1,-1,-1,-1,-1,-1],"loss_changes":[6.101736E-1,5.8818245E-1,5.2046084E-1,1.2184349E-1,0E0,3.056028E-1,3.3090305E-1,0E0,0E0,0E0,0E0,0E0,0E0],"parents":[2147483647,0,0,1,1,2,2,3,3,5,5,6,6],"right_children":[2,4,6,8,-1,10,12,-1,-1,-1,-1,-1,-1],"split_conditions":[5E-1,5E-1,5E-1,5E-1,2.441579E-3,5E-1,5E-1,-3.2087415E-4,-2.8501127E-3,7.8128465E-4,-1.749176E-3,1.0056965E-3,2.273953E-3],"split_indices":[1,3,2,6,0,6,3,0,0,0,0,0,0],"split_type":[0,0,0,0,0,0,0,0,0,0,0,0,0],"sum_hessian":[1.22E2,1.2E1,1.1E2,9E0,3E0,2E1,9E1,3E0,6E0,1.4E1,6E0,3.8E1,5.2E1],"tree_param":{"num_deleted":"0","num_feature":"13","num_nodes":"13","size_leaf_vector":"0"}},{"base_weights":[1.1893257E-1,-8.738913E-2,1.420249E-1,-2.1053655E-1,2.4232672E-1,-2.5209174E-3,1.7382091E-1,6.5210857E-3,-2.656161E-1,-4.91095E-2,2.933804E-1,2.3045231E-1,1.0524512E-1],"categories":[],"categories_nodes":[],"categories_segments":[],"categories_sizes":[],"default_left":[true,true,true,true,false,true,true,false,false,false,false,false,false],"id":58,"left_children":[1,3,5,7,-1,9,11,-1,-1,-1,-1,-1,-1],"loss_changes":[5.9843874E-1,5.788662E-1,5.105922E-1,1.2128645E-1,0E0,3.0390587E-1,3.291483E-1,0E0,0E0,0E0,0E0,0E0,0E0],"parents":[2147483647,0,0,1,1,2,2,3,3,5,5,6,6],"right_children":[2,4,6,8,-1,10,12,-1,-1,-1,-1,-1,-1],"split_conditions":[5E-1,5E-1,5E-1,5E-1,2.423267E-3,5E-1,5E-1,6.521086E-5,-2.6561609E-3,-4.91095E-4,2.933804E-3,2.304523E-3,1.0524512E-3],"split_indices":[1,3,2,2,0,8,0,0,0,0,0,0,0],"split_type":[0,0,0,0,0,0,0,0,0,0,0,0,0],"sum_hessian":[1.22E2,1.2E1,1.1E2,9E0,3E0,2E1,9E1,2E0,7E0,1.8E1,2E0,4.8E1,4.2E1],"tree_param":{"num_deleted":"0","num_feature":"13","num_nodes":"13","size_leaf_vector":"0"}},{"base_weights":[1.17789045E-1,-8.652814E-2,1.4065692E-1,-2.0869027E-1,2.4050926E-1,-2.3793962E-3,1.7211962E-1,-3.0534983E-2,-2.8068042E-1,-4.8644263E-2,2.9142454E-1,7.359651E-2,2.1039662E-1],"categories":[],"categories_nodes":[],"categories_segments":[],"categories_sizes":[],"default_left":[true,true,true,true,false,true,true,false,false,false,false,false,false],"id":59,"left_children":[1,3,5,7,-1,9,11,-1,-1,-1,-1,-1,-1],"loss_changes":[5.8686364E-1,5.695626E-1,4.9994397E-1,1.1968365E-1,0E0,2.9962495E-1,3.276918E-1,0E0,0E0,0E0,0E0,0E0,0E0],"parents":[2147483647,0,0,1,1,2,2,3,3,5,5,6,6],"right_children":[2,4,6,8,-1,10,12,-1,-1,-1,-1,-1,-1],"split_conditions":[5E-1,5E-1,5E-1,5E-1,2.4050926E-3,5E-1,5E-1,-3.0534982E-4,-2.8068041E-3,-4.8644262E-4,2.9142455E-3,7.3596503E-4,2.1039662E-3],"split_indices":[1,3,2,6,0,8,4,0,0,0,0,0,0],"split_type":[0,0,0,0,0,0,0,0,0,0,0,0,0],"sum_hessian":[1.22E2,1.2E1,1.1E2,9E0,3E0,2E1,9E1,3E0,6E0,1.8E1,2E0,2.6E1,6.4E1],"tree_param":{"num_deleted":"0","num_feature":"13","num_nodes":"13","size_leaf_vector":"0"}},{"base_weights":[1.1664823E-1,1.5224607E-1,-1.5560626E-2,3.935222E-2,2.1254827E-1,-1.3674912E-1,2.0413472E-1,1.2967852E-1,-1.4457974E-1,1.1250391E-2,2.5031674E-1,-1.0338792E-2,-2.9346967E-1,-3.262724E-1,2.9932132E-1],"categories":[],"categories_nodes":[],"categories_segments":[],"categories_sizes":[],"default_left":[true,true,true,true,true,true,true,false,false,false,false,false,false,false,false],"id":60,"left_children":[1,3,5,7,9,11,13,-1,-1,-1,-1,-1,-1,-1,-1],"loss_changes":[5.812501E-1,6.519873E-1,7.46778E-1,6.0023516E-1,4.761548E-1,3.5356563E-1,6.0253686E-1,0E0,0E0,0E0,0E0,0E0,0E0,0E0,0E0],"parents":[2147483647,0,0,1,1,2,2,3,3,4,4,5,5,6,6],"right_children":[2,4,6,8,10,12,14,-1,-1,-1,-1,-1,-1,-1,-1],"split_conditions":[5E-1,5E-1,5E-1,5E-1,5E-1,5E-1,5E-1,1.2967852E-3,-1.4457974E-3,1.12503905E-4,2.5031674E-3,-1.03387916E-4,-2.9346966E-3,-3.2627238E-3,2.9932132E-3],"split_indices":[5,4,3,6,2,4,6,0,0,0,0,0,0,0,0],"split_type":[0,0,0,0,0,0,0,0,0,0,0,0,0,0,0],"sum_hessian":[1.22E2,9.6E1,2.6E1,3.4E1,6.2E1,1.7E1,9E0,2.3E1,1.1E1,1E1,5.2E1,1E1,7E0,1E0,8E0],"tree_param":{"num_deleted":"0","num_feature":"13","num_nodes":"15","size_leaf_vector":"0"}},{"base_weights":[1.1547492E-1,1.5074904E-1,-1.5527522E-2,3.895445E-2,2.1046431E-1,-1.355504E-1,2.020664E-1,1.2843579E-1,-1.4325444E-1,1.1148101E-2,2.478608E-1,-1.0244787E-2,-2.909018E-1,-3.2464105E-1,2.966607E-1],"categories":[],"categories_nodes":[],"categories_segments":[],"categories_sizes":[],"default_left":[true,true,true,true,true,true,true,false,false,false,false,false,false,false,false],"id":61,"left_children":[1,3,5,7,9,11,13,-1,-1,-1,-1,-1,-1,-1,-1],"loss_changes":[5.707233E-1,6.393585E-1,7.325289E-1,5.8904934E-1,4.6682167E-1,3.47415E-1,5.945434E-1,0E0,0E0,0E0,0E0,0E0,0E0,0E0,0E0],"parents":[2147483647,0,0,1,1,2,2,3,3,4,4,5,5,6,6],"right_children":[2,4,6,8,10,12,14,-1,-1,-1,-1,-1,-1,-1,-1],"split_conditions":[5E-1,5E-1,5E-1,5E-1,5E-1,5E-1,5E-1,1.2843579E-3,-1.4325444E-3,1.1148101E-4,2.478608E-3,-1.0244786E-4,-2.909018E-3,-3.2464105E-3,2.9666068E-3],"split_indices":[5,4,3,6,2,4,6,0,0,0,0,0,0,0,0],"split_type":[0,0,0,0,0,0,0,0,0,0,0,0,0,0,0],"sum_hessian":[1.22E2,9.6E1,2.6E1,3.4E1,6.2E1,1.7E1,9E0,2.3E1,1.1E1,1E1,5.2E1,1E1,7E0,1E0,8E0],"tree_param":{"num_deleted":"0","num_feature":"13","num_nodes":"15","size_leaf_vector":"0"}},{"base_weights":[1.1431327E-1,1.4926673E-1,-1.5494137E-2,3.856067E-2,2.0840079E-1,-1.3436219E-1,2.0001778E-1,1.2720495E-1,-1.4194128E-1,1.1046759E-2,2.4542898E-1,-1.01516405E-2,-2.8835642E-1,-3.2301784E-1,2.9402372E-1],"categories":[],"categories_nodes":[],"categories_segments":[],"categories_sizes":[],"default_left":[true,true,true,true,true,true,true,false,false,false,false,false,false,false,false],"id":62,"left_children":[1,3,5,7,9,11,13,-1,-1,-1,-1,-1,-1,-1,-1],"loss_changes":[5.603907E-1,6.269746E-1,7.185469E-1,5.7807195E-1,4.576714E-1,3.4137148E-1,5.866595E-1,0E0,0E0,0E0,0E0,0E0,0E0,0E0,0E0],"parents":[2147483647,0,0,1,1,2,2,3,3,4,4,5,5,6,6],"right_children":[2,4,6,8,10,12,14,-1,-1,-1,-1,-1,-1,-1,-1],"split_conditions":[5E-1,5E-1,5E-1,5E-1,5E-1,5E-1,5E-1,1.2720495E-3,-1.4194128E-3,1.1046758E-4,2.4542897E-3,-1.015164E-4,-2.8835642E-3,-3.2301783E-3,2.940237E-3],"split_indices":[5,4,3,6,2,4,6,0,0,0,0,0,0,0,0],"split_type":[0,0,0,0,0,0,0,0,0,0,0,0,0,0,0],"sum_hessian":[1.22E2,9.6E1,2.6E1,3.4E1,6.2E1,1.7E1,9E0,2.3E1,1.1E1,1E1,5.2E1,1E1,7E0,1E0,8E0],"tree_param":{"num_deleted":"0","num_feature":"13","num_nodes":"15","size_leaf_vector":"0"}},{"base_weights":[1.13163166E-1,1.47799E-1,-1.54605E-2,3.8170874E-2,2.0635751E-1,-1.3318442E-1,1.9798861E-1,1.2598592E-1,-1.4064014E-1,1.0946339E-2,2.43021E-1,-1.0059362E-2,-2.8583333E-1,-3.2140276E-1,2.9141018E-1],"categories":[],"categories_nodes":[],"categories_segments":[],"categories_sizes":[],"default_left":[true,true,true,true,true,true,true,false,false,false,false,false,false,false,false],"id":63,"left_children":[1,3,5,7,9,11,13,-1,-1,-1,-1,-1,-1,-1,-1],"loss_changes":[5.502485E-1,6.1483026E-1,7.048268E-1,5.672991E-1,4.4870043E-1,3.35433E-1,5.7888365E-1,0E0,0E0,0E0,0E0,0E0,0E0,0E0,0E0],"parents":[2147483647,0,0,1,1,2,2,3,3,4,4,5,5,6,6],"right_children":[2,4,6,8,10,12,14,-1,-1,-1,-1,-1,-1,-1,-1],"split_conditions":[5E-1,5E-1,5E-1,5E-1,5E-1,5E-1,5E-1,1.2598592E-3,-1.4064014E-3,1.09463384E-4,2.43021E-3,-1.0059362E-4,-2.8583333E-3,-3.2140275E-3,2.9141018E-3],"split_indices":[5,4,3,6,2,4,6,0,0,0,0,0,0,0,0],"split_type":[0,0,0,0,0,0,0,0,0,0,0,0,0,0,0],"sum_hessian":[1.22E2,9.6E1,2.6E1,3.4E1,6.2E1,1.7E1,9E0,2.3E1,1.1E1,1E1,5.2E1,1E1,7E0,1E0,8E0],"tree_param":{"num_deleted":"0","num_feature":"13","num_nodes":"15","size_leaf_vector":"0"}},{"base_weights":[1.120245E-1,1.4634569E-1,-1.5426598E-2,3.7784968E-2,2.0433424E-1,-1.3201696E-1,1.959787E-1,1.24778554E-1,-1.3935095E-1,1.0846839E-2,2.4063665E-1,-9.967905E-3,-2.833323E-1,-3.1979576E-1,2.8881985E-1],"categories":[],"categories_nodes":[],"categories_segments":[],"categories_sizes":[],"default_left":[true,true,true,true,true,true,true,false,false,false,false,false,false,false,false],"id":64,"left_children":[1,3,5,7,9,11,13,-1,-1,-1,-1,-1,-1,-1,-1],"loss_changes":[5.402931E-1,6.029215E-1,6.9136363E-1,5.567272E-1,4.399054E-1,3.2959786E-1,5.712142E-1,0E0,0E0,0E0,0E0,0E0,0E0,0E0,0E0],"parents":[2147483647,0,0,1,1,2,2,3,3,4,4,5,5,6,6],"right_children":[2,4,6,8,10,12,14,-1,-1,-1,-1,-1,-1,-1,-1],"split_conditions":[5E-1,5E-1,5E-1,5E-1,5E-1,5E-1,5E-1,1.2477855E-3,-1.3935094E-3,1.0846839E-4,2.4063664E-3,-9.967904E-5,-2.8333229E-3,-3.1979575E-3,2.8881985E-3],"split_indices":[5,4,3,6,2,4,6,0,0,0,0,0,0,0,0],"split_type":[0,0,0,0,0,0,0,0,0,0,0,0,0,0,0],"sum_hessian":[1.22E2,9.6E1,2.6E1,3.4E1,6.2E1,1.7E1,9E0,2.3E1,1.1E1,1E1,5.2E1,1E1,7E0,1E0,8E0],"tree_param":{"num_deleted":"0","num_feature":"13","num_nodes":"15","size_leaf_vector":"0"}},{"base_weights":[1.1089715E-1,1.4490665E-1,-1.5392439E-2,3.7402965E-2,2.0233083E-1,-1.3085973E-1,1.9398794E-1,1.2358278E-1,-1.3807358E-1,1.0748222E-2,2.3827569E-1,-9.877297E-3,-2.8085312E-1,-3.1819677E-1,2.8625256E-1],"categories":[],"categories_nodes":[],"categories_segments":[],"categories_sizes":[],"default_left":[true,true,true,true,true,true,true,false,false,false,false,false,false,false,false],"id":65,"left_children":[1,3,5,7,9,11,13,-1,-1,-1,-1,-1,-1,-1,-1],"loss_changes":[5.3052104E-1,5.9124327E-1,6.7815304E-1,5.4635227E-1,4.31283E-1,3.2386413E-1,5.636499E-1,0E0,0E0,0E0,0E0,0E0,0E0,0E0,0E0],"parents":[2147483647,0,0,1,1,2,2,3,3,4,4,5,5,6,6],"right_children":[2,4,6,8,10,12,14,-1,-1,-1,-1,-1,-1,-1,-1],"split_conditions":[5E-1,5E-1,5E-1,5E-1,5E-1,5E-1,5E-1,1.2358278E-3,-1.3807358E-3,1.07482214E-4,2.382757E-3,-9.8772965E-5,-2.808531E-3,-3.1819677E-3,2.8625254E-3],"split_indices":[5,4,3,6,2,4,6,0,0,0,0,0,0,0,0],"split_type":[0,0,0,0,0,0,0,0,0,0,0,0,0,0,0],"sum_hessian":[1.22E2,9.6E1,2.6E1,3.4E1,6.2E1,1.7E1,9E0,2.3E1,1.1E1,1E1,5.2E1,1E1,7E0,1E0,8E0],"tree_param":{"num_deleted":"0","num_feature":"13","num_nodes":"15","size_leaf_vector":"0"}},{"base_weights":[1.0978102E-1,-8.274157E-2,1.3133968E-1,-2.0006137E-1,2.3124328E-1,-4.5201043E-3,1.6124865E-1,-2.6012473E-2,-2.7093768E-1,-4.99039E-2,2.844173E-1,2.1669282E-1,9.431813E-2],"categories":[],"categories_nodes":[],"categories_segments":[],"categories_sizes":[],"default_left":[true,true,true,true,false,true,true,false,false,false,false,false,false],"id":66,"left_children":[1,3,5,7,-1,9,11,-1,-1,-1,-1,-1,-1],"loss_changes":[5.213827E-1,5.2513915E-1,4.517691E-1,1.1631167E-1,0E0,2.8956816E-1,3.1725454E-1,0E0,0E0,0E0,0E0,0E0,0E0],"parents":[2147483647,0,0,1,1,2,2,3,3,5,5,6,6],"right_children":[2,4,6,8,-1,10,12,-1,-1,-1,-1,-1,-1],"split_conditions":[5E-1,5E-1,5E-1,5E-1,2.3124327E-3,5E-1,5E-1,-2.601247E-4,-2.7093769E-3,-4.9903896E-4,2.844173E-3,2.1669283E-3,9.431813E-4],"split_indices":[1,3,2,6,0,8,0,0,0,0,0,0,0],"split_type":[0,0,0,0,0,0,0,0,0,0,0,0,0],"sum_hessian":[1.22E2,1.2E1,1.1E2,9E0,3E0,2E1,9E1,3E0,6E0,1.8E1,2E0,4.8E1,4.2E1],"tree_param":{"num_deleted":"0","num_feature":"13","num_nodes":"13","size_leaf_vector":"0"}},{"base_weights":[1.0872222E-1,1.4235063E-1,-1.6117709E-2,3.6075443E-2,1.9913286E-1,-1.3004068E-1,1.905554E-1,1.21225655E-1,-1.3723128E-1,1.1283392E-2,2.3436326E-1,-1.0386285E-2,-2.7831036E-1,-3.1707737E-1,2.8218985E-1],"categories":[],"categories_nodes":[],"categories_segments":[],"categories_sizes":[],"default_left":[true,true,true,true,true,true,true,false,false,false,false,false,false,false,false],"id":67,"left_children":[1,3,5,7,9,11,13,-1,-1,-1,-1,-1,-1,-1,-1],"loss_changes":[5.18669E-1,5.7816684E-1,6.6048986E-1,5.331346E-1,4.1429043E-1,3.1644952E-1,5.546425E-1,0E0,0E0,0E0,0E0,0E0,0E0,0E0,0E0],"parents":[2147483647,0,0,1,1,2,2,3,3,4,4,5,5,6,6],"right_children":[2,4,6,8,10,12,14,-1,-1,-1,-1,-1,-1,-1,-1],"split_conditions":[5E-1,5E-1,5E-1,5E-1,5E-1,5E-1,5E-1,1.2122565E-3,-1.3723128E-3,1.1283392E-4,2.3436325E-3,-1.03862854E-4,-2.7831036E-3,-3.1707736E-3,2.8218983E-3],"split_indices":[5,4,3,6,2,4,6,0,0,0,0,0,0,0,0],"split_type":[0,0,0,0,0,0,0,0,0,0,0,0,0,0,0],"sum_hessian":[1.22E2,9.6E1,2.6E1,3.4E1,6.2E1,1.7E1,9E0,2.3E1,1.1E1,1E1,5.2E1,1E1,7E0,1E0,8E0],"tree_param":{"num_deleted":"0","num_feature":"13","num_nodes":"15","size_leaf_vector":"0"}},{"base_weights":[1.0762735E-1,1.4095078E-1,-1.6076377E-2,3.571013E-2,1.9718051E-1,-1.2890063E-1,1.8861493E-1,1.2006392E-1,-1.359733E-1,1.11808125E-2,2.3206383E-1,-1.0291847E-2,-2.7587515E-1,-3.1549197E-1,2.7968147E-1],"categories":[],"categories_nodes":[],"categories_segments":[],"categories_sizes":[],"default_left":[true,true,true,true,true,true,true,false,false,false,false,false,false,false,false],"id":68,"left_children":[1,3,5,7,9,11,13,-1,-1,-1,-1,-1,-1,-1,-1],"loss_changes":[5.093007E-1,5.6697094E-1,6.478545E-1,5.232007E-1,4.061675E-1,3.109452E-1,5.4731005E-1,0E0,0E0,0E0,0E0,0E0,0E0,0E0,0E0],"parents":[2147483647,0,0,1,1,2,2,3,3,4,4,5,5,6,6],"right_children":[2,4,6,8,10,12,14,-1,-1,-1,-1,-1,-1,-1,-1],"split_conditions":[5E-1,5E-1,5E-1,5E-1,5E-1,5E-1,5E-1,1.2006392E-3,-1.359733E-3,1.1180812E-4,2.3206382E-3,-1.0291847E-4,-2.7587514E-3,-3.1549197E-3,2.7968148E-3],"split_indices":[5,4,3,6,2,4,6,0,0,0,0,0,0,0,0],"split_type":[0,0,0,0,0,0,0,0,0,0,0,0,0,0,0],"sum_hessian":[1.22E2,9.6E1,2.6E1,3.4E1,6.2E1,1.7E1,9E0,2.3E1,1.1E1,1E1,5.2E1,1E1,7E0,1E0,8E0],"tree_param":{"num_deleted":"0","num_feature":"13","num_nodes":"15","size_leaf_vector":"0"}},{"base_weights":[1.06543384E-1,1.3956472E-1,-1.6034866E-2,3.5348505E-2,1.9524729E-1,-1.2777062E-1,1.8669297E-1,1.1891334E-1,-1.3472687E-1,1.107916E-2,2.2978696E-1,-1.01982765E-2,-2.7346125E-1,-3.139145E-1,2.771954E-1],"categories":[],"categories_nodes":[],"categories_segments":[],"categories_sizes":[],"default_left":[true,true,true,true,true,true,true,false,false,false,false,false,false,false,false],"id":69,"left_children":[1,3,5,7,9,11,13,-1,-1,-1,-1,-1,-1,-1,-1],"loss_changes":[5.0010467E-1,5.55992E-1,6.3545644E-1,5.1345205E-1,3.9820385E-1,3.0553654E-1,5.400776E-1,0E0,0E0,0E0,0E0,0E0,0E0,0E0,0E0],"parents":[2147483647,0,0,1,1,2,2,3,3,4,4,5,5,6,6],"right_children":[2,4,6,8,10,12,14,-1,-1,-1,-1,-1,-1,-1,-1],"split_conditions":[5E-1,5E-1,5E-1,5E-1,5E-1,5E-1,5E-1,1.1891334E-3,-1.3472687E-3,1.10791596E-4,2.2978697E-3,-1.0198276E-4,-2.7346124E-3,-3.139145E-3,2.7719538E-3],"split_indices":[5,4,3,6,2,4,6,0,0,0,0,0,0,0,0],"split_type":[0,0,0,0,0,0,0,0,0,0,0,0,0,0,0],"sum_hessian":[1.22E2,9.6E1,2.6E1,3.4E1,6.2E1,1.7E1,9E0,2.3E1,1.1E1,1E1,5.2E1,1E1,7E0,1E0,8E0],"tree_param":{"num_deleted":"0","num_feature":"13","num_nodes":"15","size_leaf_vector":"0"}},{"base_weights":[1.05470195E-1,1.3819227E-1,-1.5993185E-2,3.4990508E-2,1.9333304E-1,-1.266505E-1,1.847893E-1,1.1777377E-1,-1.3349189E-1,1.0978433E-2,2.2753245E-1,-1.0105564E-2,-2.7106848E-1,-3.1234494E-1,2.7473143E-1],"categories":[],"categories_nodes":[],"categories_segments":[],"categories_sizes":[],"default_left":[true,true,true,true,true,true,true,false,false,false,false,false,false,false,false],"id":70,"left_children":[1,3,5,7,9,11,13,-1,-1,-1,-1,-1,-1,-1,-1],"loss_changes":[4.9107778E-1,5.4522574E-1,6.232911E-1,5.038851E-1,3.9039636E-1,3.0022204E-1,5.329441E-1,0E0,0E0,0E0,0E0,0E0,0E0,0E0,0E0],"parents":[2147483647,0,0,1,1,2,2,3,3,4,4,5,5,6,6],"right_children":[2,4,6,8,10,12,14,-1,-1,-1,-1,-1,-1,-1,-1],"split_conditions":[5E-1,5E-1,5E-1,5E-1,5E-1,5E-1,5E-1,1.1777377E-3,-1.3349189E-3,1.09784334E-4,2.2753244E-3,-1.0105564E-4,-2.7106847E-3,-3.1234494E-3,2.7473143E-3],"split_indices":[5,4,3,6,2,4,6,0,0,0,0,0,0,0,0],"split_type":[0,0,0,0,0,0,0,0,0,0,0,0,0,0,0],"sum_hessian":[1.22E2,9.6E1,2.6E1,3.4E1,6.2E1,1.7E1,9E0,2.3E1,1.1E1,1E1,5.2E1,1E1,7E0,1E0,8E0],"tree_param":{"num_deleted":"0","num_feature":"13","num_nodes":"15","size_leaf_vector":"0"}},{"base_weights":[1.04407676E-1,1.368333E-1,-1.5951322E-2,3.4636118E-2,1.9143756E-1,-1.2554021E-1,1.8290381E-1,1.1664511E-1,-1.3226822E-1,1.08786225E-2,2.2530003E-1,-1.0013711E-2,-2.686966E-1,-3.107832E-1,2.722894E-1],"categories":[],"categories_nodes":[],"categories_segments":[],"categories_sizes":[],"default_left":[true,true,true,true,true,true,true,false,false,false,false,false,false,false,false],"id":71,"left_children":[1,3,5,7,9,11,13,-1,-1,-1,-1,-1,-1,-1,-1],"loss_changes":[4.8221672E-1,5.346682E-1,6.1135423E-1,4.9449646E-1,3.8274193E-1,2.9499987E-1,5.2590793E-1,0E0,0E0,0E0,0E0,0E0,0E0,0E0,0E0],"parents":[2147483647,0,0,1,1,2,2,3,3,4,4,5,5,6,6],"right_children":[2,4,6,8,10,12,14,-1,-1,-1,-1,-1,-1,-1,-1],"split_conditions":[5E-1,5E-1,5E-1,5E-1,5E-1,5E-1,5E-1,1.1664511E-3,-1.3226821E-3,1.08786226E-4,2.2530002E-3,-1.00137106E-4,-2.686966E-3,-3.107832E-3,2.7228938E-3],"split_indices":[5,4,3,6,2,4,6,0,0,0,0,0,0,0,0],"split_type":[0,0,0,0,0,0,0,0,0,0,0,0,0,0,0],"sum_hessian":[1.22E2,9.6E1,2.6E1,3.4E1,6.2E1,1.7E1,9E0,2.3E1,1.1E1,1E1,5.2E1,1E1,7E0,1E0,8E0],"tree_param":{"num_deleted":"0","num_feature":"13","num_nodes":"15","size_leaf_vector":"0"}},{"base_weights":[1.0335574E-1,1.354877E-1,-1.5909297E-2,3.4285285E-2,1.8956068E-1,-1.2443964E-1,1.8103626E-1,1.1552725E-1,-1.3105576E-1,1.0779727E-2,2.2308955E-1,-9.922678E-3,-2.663455E-1,-3.0922928E-1,2.6986903E-1],"categories":[],"categories_nodes":[],"categories_segments":[],"categories_sizes":[],"default_left":[true,true,true,true,true,true,true,false,false,false,false,false,false,false,false],"id":72,"left_children":[1,3,5,7,9,11,13,-1,-1,-1,-1,-1,-1,-1,-1],"loss_changes":[4.735186E-1,5.2431536E-1,5.996415E-1,4.8528263E-1,3.7523746E-1,2.898685E-1,5.189678E-1,0E0,0E0,0E0,0E0,0E0,0E0,0E0,0E0],"parents":[2147483647,0,0,1,1,2,2,3,3,4,4,5,5,6,6],"right_children":[2,4,6,8,10,12,14,-1,-1,-1,-1,-1,-1,-1,-1],"split_conditions":[5E-1,5E-1,5E-1,5E-1,5E-1,5E-1,5E-1,1.1552725E-3,-1.3105576E-3,1.0779727E-4,2.2308955E-3,-9.9226774E-5,-2.663455E-3,-3.0922927E-3,2.6986902E-3],"split_indices":[5,4,3,6,2,4,6,0,0,0,0,0,0,0,0],"split_type":[0,0,0,0,0,0,0,0,0,0,0,0,0,0,0],"sum_hessian":[1.22E2,9.6E1,2.6E1,3.4E1,6.2E1,1.7E1,9E0,2.3E1,1.1E1,1E1,5.2E1,1E1,7E0,1E0,8E0],"tree_param":{"num_deleted":"0","num_feature":"13","num_nodes":"15","size_leaf_vector":"0"}},{"base_weights":[1.02314286E-1,1.3415535E-1,-1.5867112E-2,3.393801E-2,1.877022E-1,-1.2334873E-1,1.7918651E-1,1.1442013E-1,-1.298544E-1,1.0681719E-2,2.2090074E-1,-9.832466E-3,-2.64015E-1,-3.0768314E-1,2.6747015E-1],"categories":[],"categories_nodes":[],"categories_segments":[],"categories_sizes":[],"default_left":[true,true,true,true,true,true,true,false,false,false,false,false,false,false,false],"id":73,"left_children":[1,3,5,7,9,11,13,-1,-1,-1,-1,-1,-1,-1,-1],"loss_changes":[4.6498036E-1,5.14163E-1,5.881487E-1,4.7624058E-1,3.678801E-1,2.848265E-1,5.1212233E-1,0E0,0E0,0E0,0E0,0E0,0E0,0E0,0E0],"parents":[2147483647,0,0,1,1,2,2,3,3,4,4,5,5,6,6],"right_children":[2,4,6,8,10,12,14,-1,-1,-1,-1,-1,-1,-1,-1],"split_conditions":[5E-1,5E-1,5E-1,5E-1,5E-1,5E-1,5E-1,1.1442013E-3,-1.2985439E-3,1.06817184E-4,2.2090075E-3,-9.832466E-5,-2.6401498E-3,-3.0768313E-3,2.6747014E-3],"split_indices":[5,4,3,6,2,4,6,0,0,0,0,0,0,0,0],"split_type":[0,0,0,0,0,0,0,0,0,0,0,0,0,0,0],"sum_hessian":[1.22E2,9.6E1,2.6E1,3.4E1,6.2E1,1.7E1,9E0,2.3E1,1.1E1,1E1,5.2E1,1E1,7E0,1E0,8E0],"tree_param":{"num_deleted":"0","num_feature":"13","num_nodes":"15","size_leaf_vector":"0"}},{"base_weights":[1.0128318E-1,1.3283607E-1,-1.5824756E-2,3.3594202E-2,1.8586193E-1,-1.2226737E-1,1.7735444E-1,1.1332358E-1,-1.2866406E-1,1.0584617E-2,2.1873342E-1,-9.743067E-3,-2.6170486E-1,-3.061447E-1,2.6509264E-1],"categories":[],"categories_nodes":[],"categories_segments":[],"categories_sizes":[],"default_left":[true,true,true,true,true,true,true,false,false,false,false,false,false,false,false],"id":74,"left_children":[1,3,5,7,9,11,13,-1,-1,-1,-1,-1,-1,-1,-1],"loss_changes":[4.5659876E-1,5.042076E-1,5.768721E-1,4.673669E-1,3.6066723E-1,2.7987212E-1,5.0537014E-1,0E0,0E0,0E0,0E0,0E0,0E0,0E0,0E0],"parents":[2147483647,0,0,1,1,2,2,3,3,4,4,5,5,6,6],"right_children":[2,4,6,8,10,12,14,-1,-1,-1,-1,-1,-1,-1,-1],"split_conditions":[5E-1,5E-1,5E-1,5E-1,5E-1,5E-1,5E-1,1.1332358E-3,-1.2866405E-3,1.0584617E-4,2.187334E-3,-9.7430675E-5,-2.6170486E-3,-3.061447E-3,2.6509264E-3],"split_indices":[5,4,3,6,2,4,6,0,0,0,0,0,0,0,0],"split_type":[0,0,0,0,0,0,0,0,0,0,0,0,0,0,0],"sum_hessian":[1.22E2,9.6E1,2.6E1,3.4E1,6.2E1,1.7E1,9E0,2.3E1,1.1E1,1E1,5.2E1,1E1,7E0,1E0,8E0],"tree_param":{"num_deleted":"0","num_feature":"13","num_nodes":"15","size_leaf_vector":"0"}},{"base_weights":[1.0026234E-1,1.3152978E-1,-1.5782235E-2,3.3253856E-2,1.8403973E-1,-1.21195495E-1,1.7553985E-1,1.12237535E-1,-1.2748465E-1,1.0488383E-2,2.1658738E-1,-9.654481E-3,-2.5941494E-1,-3.0461398E-1,2.6273626E-1],"categories":[],"categories_nodes":[],"categories_segments":[],"categories_sizes":[],"default_left":[true,true,true,true,true,true,true,false,false,false,false,false,false,false,false],"id":75,"left_children":[1,3,5,7,9,11,13,-1,-1,-1,-1,-1,-1,-1,-1],"loss_changes":[4.4837105E-1,4.944451E-1,5.658075E-1,4.5865873E-1,3.535955E-1,2.75004E-1,4.9871013E-1,0E0,0E0,0E0,0E0,0E0,0E0,0E0,0E0],"parents":[2147483647,0,0,1,1,2,2,3,3,4,4,5,5,6,6],"right_children":[2,4,6,8,10,12,14,-1,-1,-1,-1,-1,-1,-1,-1],"split_conditions":[5E-1,5E-1,5E-1,5E-1,5E-1,5E-1,5E-1,1.1223754E-3,-1.2748465E-3,1.04883824E-4,2.1658738E-3,-9.6544805E-5,-2.5941494E-3,-3.0461396E-3,2.6273625E-3],"split_indices":[5,4,3,6,2,4,6,0,0,0,0,0,0,0,0],"split_type":[0,0,0,0,0,0,0,0,0,0,0,0,0,0,0],"sum_hessian":[1.22E2,9.6E1,2.6E1,3.4E1,6.2E1,1.7E1,9E0,2.3E1,1.1E1,1E1,5.2E1,1E1,7E0,1E0,8E0],"tree_param":{"num_deleted":"0","num_feature":"13","num_nodes":"15","size_leaf_vector":"0"}},{"base_weights":[9.925167E-2,-7.773856E-2,1.19086094E-1,1.139416E-1,-2.583132E-1,-7.5169276E-3,1.4699355E-1,2.7552053E-1,-1.9333714E-1,-5.1811397E-2,2.7552035E-1,2.0093128E-1,8.211116E-2],"categories":[],"categories_nodes":[],"categories_segments":[],"categories_sizes":[],"default_left":[true,true,true,true,false,true,true,false,false,false,false,false,false],"id":76,"left_children":[1,3,5,7,-1,9,11,-1,-1,-1,-1,-1,-1],"loss_changes":[4.410491E-1,4.7939616E-1,3.932866E-1,4.0081677E-1,0E0,2.7755183E-1,3.019656E-1,0E0,0E0,0E0,0E0,0E0,0E0],"parents":[2147483647,0,0,1,1,2,2,3,3,5,5,6,6],"right_children":[2,4,6,8,-1,10,12,-1,-1,-1,-1,-1,-1],"split_conditions":[5E-1,5E-1,5E-1,5E-1,-2.5831321E-3,5E-1,5E-1,2.7552054E-3,-1.9333714E-3,-5.1811396E-4,2.7552035E-3,2.0093129E-3,8.2111155E-4],"split_indices":[1,6,2,5,0,8,0,0,0,0,0,0,0],"split_type":[0,0,0,0,0,0,0,0,0,0,0,0,0],"sum_hessian":[1.22E2,1.2E1,1.1E2,6E0,6E0,2E1,9E1,4E0,2E0,1.8E1,2E0,4.8E1,4.2E1],"tree_param":{"num_deleted":"0","num_feature":"13","num_nodes":"13","size_leaf_vector":"0"}},{"base_weights":[9.8286025E-2,1.2916476E-1,-1.6288867E-2,3.202548E-2,1.8108077E-1,-1.2021633E-1,1.7240946E-1,1.1004094E-1,-1.2667423E-1,1.0754212E-2,2.1301496E-1,-9.941862E-3,-2.568167E-1,-3.0350146E-1,2.5901082E-1],"categories":[],"categories_nodes":[],"categories_segments":[],"categories_sizes":[],"default_left":[true,true,true,true,true,true,true,false,false,false,false,false,false,false,false],"id":77,"left_children":[1,3,5,7,9,11,13,-1,-1,-1,-1,-1,-1,-1,-1],"loss_changes":[4.3726897E-1,4.8337996E-1,5.502218E-1,4.4727543E-1,3.4038115E-1,2.6859033E-1,4.9075556E-1,0E0,0E0,0E0,0E0,0E0,0E0,0E0,0E0],"parents":[2147483647,0,0,1,1,2,2,3,3,4,4,5,5,6,6],"right_children":[2,4,6,8,10,12,14,-1,-1,-1,-1,-1,-1,-1,-1],"split_conditions":[5E-1,5E-1,5E-1,5E-1,5E-1,5E-1,5E-1,1.1004094E-3,-1.2667424E-3,1.0754212E-4,2.1301496E-3,-9.941862E-5,-2.5681667E-3,-3.0350145E-3,2.5901082E-3],"split_indices":[5,4,3,6,2,4,6,0,0,0,0,0,0,0,0],"split_type":[0,0,0,0,0,0,0,0,0,0,0,0,0,0,0],"sum_hessian":[1.22E2,9.6E1,2.6E1,3.4E1,6.2E1,1.7E1,9E0,2.3E1,1.1E1,1E1,5.2E1,1E1,7E0,1E0,8E0],"tree_param":{"num_deleted":"0","num_feature":"13","num_nodes":"15","size_leaf_vector":"0"}},{"base_weights":[9.7294696E-2,1.2789445E-1,-1.6241256E-2,3.170046E-2,1.793055E-1,-1.19162366E-1,1.7064086E-1,1.0898637E-1,-1.2551306E-1,1.0656446E-2,2.10925E-1,-9.85148E-3,-2.5456953E-1,-3.0198395E-1,2.567085E-1],"categories":[],"categories_nodes":[],"categories_segments":[],"categories_sizes":[],"default_left":[true,true,true,true,true,true,true,false,false,false,false,false,false,false,false],"id":78,"left_children":[1,3,5,7,9,11,13,-1,-1,-1,-1,-1,-1,-1,-1],"loss_changes":[4.2940032E-1,4.7402298E-1,5.39655E-1,4.3894288E-1,3.3370614E-1,2.6391873E-1,4.8429886E-1,0E0,0E0,0E0,0E0,0E0,0E0,0E0,0E0],"parents":[2147483647,0,0,1,1,2,2,3,3,4,4,5,5,6,6],"right_children":[2,4,6,8,10,12,14,-1,-1,-1,-1,-1,-1,-1,-1],"split_conditions":[5E-1,5E-1,5E-1,5E-1,5E-1,5E-1,5E-1,1.0898637E-3,-1.2551306E-3,1.0656446E-4,2.1092498E-3,-9.85148E-5,-2.5456953E-3,-3.0198395E-3,2.567085E-3],"split_indices":[5,4,3,6,2,4,6,0,0,0,0,0,0,0,0],"split_type":[0,0,0,0,0,0,0,0,0,0,0,0,0,0,0],"sum_hessian":[1.22E2,9.6E1,2.6E1,3.4E1,6.2E1,1.7E1,9E0,2.3E1,1.1E1,1E1,5.2E1,1E1,7E0,1E0,8E0],"tree_param":{"num_deleted":"0","num_feature":"13","num_nodes":"15","size_leaf_vector":"0"}},{"base_weights":[9.631325E-2,1.2663665E-1,-1.6193548E-2,3.137873E-2,1.7754762E-1,-1.1811763E-1,1.6888915E-1,1.0794191E-1,-1.2436252E-1,1.0559562E-2,2.0885557E-1,-9.761911E-3,-2.5234205E-1,-3.0047405E-1,2.5442663E-1],"categories":[],"categories_nodes":[],"categories_segments":[],"categories_sizes":[],"default_left":[true,true,true,true,true,true,true,false,false,false,false,false,false,false,false],"id":79,"left_children":[1,3,5,7,9,11,13,-1,-1,-1,-1,-1,-1,-1,-1],"loss_changes":[4.2167616E-1,4.6484697E-1,5.2928716E-1,4.307655E-1,3.271619E-1,2.5932837E-1,4.7793E-1,0E0,0E0,0E0,0E0,0E0,0E0,0E0,0E0],"parents":[2147483647,0,0,1,1,2,2,3,3,4,4,5,5,6,6],"right_children":[2,4,6,8,10,12,14,-1,-1,-1,-1,-1,-1,-1,-1],"split_conditions":[5E-1,5E-1,5E-1,5E-1,5E-1,5E-1,5E-1,1.079419E-3,-1.2436252E-3,1.05595616E-4,2.0885556E-3,-9.761911E-5,-2.5234204E-3,-3.0047405E-3,2.5442662E-3],"split_indices":[5,4,3,6,2,4,6,0,0,0,0,0,0,0,0],"split_type":[0,0,0,0,0,0,0,0,0,0,0,0,0,0,0],"sum_hessian":[1.22E2,9.6E1,2.6E1,3.4E1,6.2E1,1.7E1,9E0,2.3E1,1.1E1,1E1,5.2E1,1E1,7E0,1E0,8E0],"tree_param":{"num_deleted":"0","num_feature":"13","num_nodes":"15","size_leaf_vector":"0"}},{"base_weights":[9.534157E-2,1.2539122E-1,-1.6145743E-2,3.1060245E-2,1.7580698E-1,-1.1708206E-1,1.671542E-1,1.0690745E-1,-1.23222515E-1,1.0463557E-2,2.0680642E-1,-9.673154E-3,-2.5013405E-1,-2.9897168E-1,2.5216505E-1],"categories":[],"categories_nodes":[],"categories_segments":[],"categories_sizes":[],"default_left":[true,true,true,true,true,true,true,false,false,false,false,false,false,false,false],"id":80,"left_children":[1,3,5,7,9,11,13,-1,-1,-1,-1,-1,-1,-1,-1],"loss_changes":[4.140936E-1,4.5584893E-1,5.1911455E-1,4.2274046E-1,3.2074583E-1,2.548178E-1,4.716477E-1,0E0,0E0,0E0,0E0,0E0,0E0,0E0,0E0],"parents":[2147483647,0,0,1,1,2,2,3,3,4,4,5,5,6,6],"right_children":[2,4,6,8,10,12,14,-1,-1,-1,-1,-1,-1,-1,-1],"split_conditions":[5E-1,5E-1,5E-1,5E-1,5E-1,5E-1,5E-1,1.0690745E-3,-1.2322251E-3,1.0463557E-4,2.0680642E-3,-9.6731535E-5,-2.5013404E-3,-2.9897168E-3,2.5216504E-3],"split_indices":[5,4,3,6,2,4,6,0,0,0,0,0,0,0,0],"split_type":[0,0,0,0,0,0,0,0,0,0,0,0,0,0,0],"sum_hessian":[1.22E2,9.6E1,2.6E1,3.4E1,6.2E1,1.7E1,9E0,2.3E1,1.1E1,1E1,5.2E1,1E1,7E0,1E0,8E0],"tree_param":{"num_deleted":"0","num_feature":"13","num_nodes":"15","size_leaf_vector":"0"}},{"base_weights":[9.4379574E-2,1.2415804E-1,-1.6097836E-2,3.0744981E-2,1.7408341E-1,-1.1605556E-1,1.6543587E-1,1.0588292E-1,-1.22092985E-1,1.0368452E-2,2.047774E-1,-9.58521E-3,-2.4794537E-1,-2.9747683E-1,2.4992359E-1],"categories":[],"categories_nodes":[],"categories_segments":[],"categories_sizes":[],"default_left":[true,true,true,true,true,true,true,false,false,false,false,false,false,false,false],"id":81,"left_children":[1,3,5,7,9,11,13,-1,-1,-1,-1,-1,-1,-1,-1],"loss_changes":[4.0664983E-1,4.4702494E-1,5.091335E-1,4.148651E-1,3.1445587E-1,2.5038573E-1,4.6545085E-1,0E0,0E0,0E0,0E0,0E0,0E0,0E0,0E0],"parents":[2147483647,0,0,1,1,2,2,3,3,4,4,5,5,6,6],"right_children":[2,4,6,8,10,12,14,-1,-1,-1,-1,-1,-1,-1,-1],"split_conditions":[5E-1,5E-1,5E-1,5E-1,5E-1,5E-1,5E-1,1.0588291E-3,-1.2209298E-3,1.0368452E-4,2.047774E-3,-9.58521E-5,-2.4794536E-3,-2.9747682E-3,2.4992358E-3],"split_indices":[5,4,3,6,2,4,6,0,0,0,0,0,0,0,0],"split_type":[0,0,0,0,0,0,0,0,0,0,0,0,0,0,0],"sum_hessian":[1.22E2,9.6E1,2.6E1,3.4E1,6.2E1,1.7E1,9E0,2.3E1,1.1E1,1E1,5.2E1,1E1,7E0,1E0,8E0],"tree_param":{"num_deleted":"0","num_feature":"13","num_nodes":"15","size_leaf_vector":"0"}},{"base_weights":[9.342715E-2,1.22936964E-1,-1.6049854E-2,3.0432912E-2,1.7237672E-1,-1.1503809E-1,1.6373396E-1,1.04868226E-1,-1.2097379E-1,1.0274177E-2,2.0276827E-1,-9.498078E-3,-2.4577585E-1,-2.9598945E-1,2.4770206E-1],"categories":[],"categories_nodes":[],"categories_segments":[],"categories_sizes":[],"default_left":[true,true,true,true,true,true,true,false,false,false,false,false,false,false,false],"id":82,"left_children":[1,3,5,7,9,11,13,-1,-1,-1,-1,-1,-1,-1,-1],"loss_changes":[3.9934254E-1,4.3837178E-1,4.9934065E-1,4.0713644E-1,3.0828905E-1,2.4603078E-1,4.593382E-1,0E0,0E0,0E0,0E0,0E0,0E0,0E0,0E0],"parents":[2147483647,0,0,1,1,2,2,3,3,4,4,5,5,6,6],"right_children":[2,4,6,8,10,12,14,-1,-1,-1,-1,-1,-1,-1,-1],"split_conditions":[5E-1,5E-1,5E-1,5E-1,5E-1,5E-1,5E-1,1.0486823E-3,-1.2097378E-3,1.02741775E-4,2.0276827E-3,-9.498078E-5,-2.4577584E-3,-2.9598945E-3,2.4770205E-3],"split_indices":[5,4,3,6,2,4,6,0,0,0,0,0,0,0,0],"split_type":[0,0,0,0,0,0,0,0,0,0,0,0,0,0,0],"sum_hessian":[1.22E2,9.6E1,2.6E1,3.4E1,6.2E1,1.7E1,9E0,2.3E1,1.1E1,1E1,5.2E1,1E1,7E0,1E0,8E0],"tree_param":{"num_deleted":"0","num_feature":"13","num_nodes":"15","size_leaf_vector":"0"}},{"base_weights":[9.2484206E-2,-7.44332E-2,1.111999E-1,1.1144303E-1,-2.4967612E-1,-9.268243E-3,1.3777827E-1,2.6811737E-1,-1.8682857E-1,-5.2778482E-2,2.6938602E-1,1.9058074E-1,7.440385E-2],"categories":[],"categories_nodes":[],"categories_segments":[],"categories_sizes":[],"default_left":[true,true,true,true,false,true,true,false,false,false,false,false,false],"id":83,"left_children":[1,3,5,7,-1,9,11,-1,-1,-1,-1,-1,-1],"loss_changes":[3.925259E-1,4.5128006E-1,3.5668182E-1,3.7721255E-1,0E0,2.6882836E-1,2.903359E-1,0E0,0E0,0E0,0E0,0E0,0E0],"parents":[2147483647,0,0,1,1,2,2,3,3,5,5,6,6],"right_children":[2,4,6,8,-1,10,12,-1,-1,-1,-1,-1,-1],"split_conditions":[5E-1,5E-1,5E-1,5E-1,-2.4967613E-3,5E-1,5E-1,2.6811736E-3,-1.8682856E-3,-5.277848E-4,2.69386E-3,1.9058074E-3,7.440385E-4],"split_indices":[1,6,2,5,0,8,0,0,0,0,0,0,0],"split_type":[0,0,0,0,0,0,0,0,0,0,0,0,0],"sum_hessian":[1.22E2,1.2E1,1.1E2,6E0,6E0,2E1,9E1,4E0,2E0,1.8E1,2E0,4.8E1,4.2E1],"tree_param":{"num_deleted":"0","num_feature":"13","num_nodes":"13","size_leaf_vector":"0"}},{"base_weights":[9.158483E-2,1.2072633E-1,-1.650075E-2,2.9289855E-2,1.6960809E-1,-1.1408323E-1,1.6079779E-1,1.028054E-1,-1.20182045E-1,1.05478605E-2,1.9942044E-1,-9.747229E-3,-2.4328484E-1,-2.9488152E-1,2.4419343E-1],"categories":[],"categories_nodes":[],"categories_segments":[],"categories_sizes":[],"default_left":[true,true,true,true,true,true,true,false,false,false,false,false,false,false,false],"id":84,"left_children":[1,3,5,7,9,11,13,-1,-1,-1,-1,-1,-1,-1,-1],"loss_changes":[3.8941455E-1,4.28581E-1,4.854776E-1,3.9695314E-1,2.9663992E-1,2.4027549E-1,4.5202488E-1,0E0,0E0,0E0,0E0,0E0,0E0,0E0,0E0],"parents":[2147483647,0,0,1,1,2,2,3,3,4,4,5,5,6,6],"right_children":[2,4,6,8,10,12,14,-1,-1,-1,-1,-1,-1,-1,-1],"split_conditions":[5E-1,5E-1,5E-1,5E-1,5E-1,5E-1,5E-1,1.0280539E-3,-1.2018204E-3,1.05478604E-4,1.9942042E-3,-9.7472286E-5,-2.4328483E-3,-2.9488152E-3,2.4419343E-3],"split_indices":[5,4,3,6,2,4,6,0,0,0,0,0,0,0,0],"split_type":[0,0,0,0,0,0,0,0,0,0,0,0,0,0,0],"sum_hessian":[1.22E2,9.6E1,2.6E1,3.4E1,6.2E1,1.7E1,9E0,2.3E1,1.1E1,1E1,5.2E1,1E1,7E0,1E0,8E0],"tree_param":{"num_deleted":"0","num_feature":"13","num_nodes":"15","size_leaf_vector":"0"}},{"base_weights":[9.0659946E-2,1.19538926E-1,-1.6448243E-2,2.8991984E-2,1.6794534E-1,-1.1308298E-1,1.5913913E-1,1.0182017E-1,-1.1908039E-1,1.04519585E-2,1.9746387E-1,-9.658626E-3,-2.411561E-1,-2.934071E-1,2.4202283E-1],"categories":[],"categories_nodes":[],"categories_segments":[],"categories_sizes":[],"default_left":[true,true,true,true,true,true,true,false,false,false,false,false,false,false,false],"id":85,"left_children":[1,3,5,7,9,11,13,-1,-1,-1,-1,-1,-1,-1,-1],"loss_changes":[3.8242674E-1,4.20287E-1,4.761276E-1,3.8955924E-1,2.9082143E-1,2.360966E-1,4.460983E-1,0E0,0E0,0E0,0E0,0E0,0E0,0E0,0E0],"parents":[2147483647,0,0,1,1,2,2,3,3,4,4,5,5,6,6],"right_children":[2,4,6,8,10,12,14,-1,-1,-1,-1,-1,-1,-1,-1],"split_conditions":[5E-1,5E-1,5E-1,5E-1,5E-1,5E-1,5E-1,1.0182017E-3,-1.1908038E-3,1.0451958E-4,1.9746386E-3,-9.6586264E-5,-2.4115609E-3,-2.934071E-3,2.4202282E-3],"split_indices":[5,4,3,6,2,4,6,0,0,0,0,0,0,0,0],"split_type":[0,0,0,0,0,0,0,0,0,0,0,0,0,0,0],"sum_hessian":[1.22E2,9.6E1,2.6E1,3.4E1,6.2E1,1.7E1,9E0,2.3E1,1.1E1,1E1,5.2E1,1E1,7E0,1E0,8E0],"tree_param":{"num_deleted":"0","num_feature":"13","num_nodes":"15","size_leaf_vector":"0"}},{"base_weights":[8.974427E-2,1.1836319E-1,-1.63957E-2,2.8697113E-2,1.6629888E-1,-1.1209151E-1,1.5749633E-1,1.0084437E-1,-1.1798883E-1,1.03569245E-2,1.9552648E-1,-9.570837E-3,-2.3904599E-1,-2.9194006E-1,2.398715E-1],"categories":[],"categories_nodes":[],"categories_segments":[],"categories_sizes":[],"default_left":[true,true,true,true,true,true,true,false,false,false,false,false,false,false,false],"id":86,"left_children":[1,3,5,7,9,11,13,-1,-1,-1,-1,-1,-1,-1,-1],"loss_changes":[3.7556672E-1,4.1215372E-1,4.6695393E-1,3.8230312E-1,2.8511703E-1,2.319904E-1,4.4025213E-1,0E0,0E0,0E0,0E0,0E0,0E0,0E0,0E0],"parents":[2147483647,0,0,1,1,2,2,3,3,4,4,5,5,6,6],"right_children":[2,4,6,8,10,12,14,-1,-1,-1,-1,-1,-1,-1,-1],"split_conditions":[5E-1,5E-1,5E-1,5E-1,5E-1,5E-1,5E-1,1.0084437E-3,-1.1798883E-3,1.0356924E-4,1.9552647E-3,-9.570837E-5,-2.3904599E-3,-2.9194006E-3,2.398715E-3],"split_indices":[5,4,3,6,2,4,6,0,0,0,0,0,0,0,0],"split_type":[0,0,0,0,0,0,0,0,0,0,0,0,0,0,0],"sum_hessian":[1.22E2,9.6E1,2.6E1,3.4E1,6.2E1,1.7E1,9E0,2.3E1,1.1E1,1E1,5.2E1,1E1,7E0,1E0,8E0],"tree_param":{"num_deleted":"0","num_feature":"13","num_nodes":"15","size_leaf_vector":"0"}},{"base_weights":[8.883772E-2,1.17199E-1,-1.6343111E-2,2.8405234E-2,1.6466857E-1,-1.1110871E-1,1.5586929E-1,9.987794E-2,-1.16907276E-1,1.0262763E-2,1.936081E-1,-9.483823E-3,-2.3695436E-1,-2.9048038E-1,2.377393E-1],"categories":[],"categories_nodes":[],"categories_segments":[],"categories_sizes":[],"default_left":[true,true,true,true,true,true,true,false,false,false,false,false,false,false,false],"id":87,"left_children":[1,3,5,7,9,11,13,-1,-1,-1,-1,-1,-1,-1,-1],"loss_changes":[3.688323E-1,4.0417767E-1,4.5795336E-1,3.751822E-1,2.7952433E-1,2.2795567E-1,4.3448508E-1,0E0,0E0,0E0,0E0,0E0,0E0,0E0,0E0],"parents":[2147483647,0,0,1,1,2,2,3,3,4,4,5,5,6,6],"right_children":[2,4,6,8,10,12,14,-1,-1,-1,-1,-1,-1,-1,-1],"split_conditions":[5E-1,5E-1,5E-1,5E-1,5E-1,5E-1,5E-1,9.987793E-4,-1.1690727E-3,1.0262763E-4,1.936081E-3,-9.483822E-5,-2.3695435E-3,-2.9048037E-3,2.377393E-3],"split_indices":[5,4,3,6,2,4,6,0,0,0,0,0,0,0,0],"split_type":[0,0,0,0,0,0,0,0,0,0,0,0,0,0,0],"sum_hessian":[1.22E2,9.6E1,2.6E1,3.4E1,6.2E1,1.7E1,9E0,2.3E1,1.1E1,1E1,5.2E1,1E1,7E0,1E0,8E0],"tree_param":{"num_deleted":"0","num_feature":"13","num_nodes":"15","size_leaf_vector":"0"}},{"base_weights":[8.79402E-2,1.1604627E-1,-1.6290491E-2,2.811631E-2,1.6305424E-1,-1.1013455E-1,1.5425786E-1,9.892076E-2,-1.15835615E-1,1.0169455E-2,1.9170856E-1,-9.397612E-3,-2.3488101E-1,-2.8902796E-1,2.3562606E-1],"categories":[],"categories_nodes":[],"categories_segments":[],"categories_sizes":[],"default_left":[true,true,true,true,true,true,true,false,false,false,false,false,false,false,false],"id":88,"left_children":[1,3,5,7,9,11,13,-1,-1,-1,-1,-1,-1,-1,-1],"loss_changes":[3.6222076E-1,3.9635634E-1,4.4912276E-1,3.6819384E-1,2.740414E-1,2.2399105E-1,4.2879617E-1,0E0,0E0,0E0,0E0,0E0,0E0,0E0,0E0],"parents":[2147483647,0,0,1,1,2,2,3,3,4,4,5,5,6,6],"right_children":[2,4,6,8,10,12,14,-1,-1,-1,-1,-1,-1,-1,-1],"split_conditions":[5E-1,5E-1,5E-1,5E-1,5E-1,5E-1,5E-1,9.892076E-4,-1.1583561E-3,1.01694546E-4,1.9170856E-3,-9.3976116E-5,-2.34881E-3,-2.8902795E-3,2.3562605E-3],"split_indices":[5,4,3,6,2,4,6,0,0,0,0,0,0,0,0],"split_type":[0,0,0,0,0,0,0,0,0,0,0,0,0,0,0],"sum_hessian":[1.22E2,9.6E1,2.6E1,3.4E1,6.2E1,1.7E1,9E0,2.3E1,1.1E1,1E1,5.2E1,1E1,7E0,1E0,8E0],"tree_param":{"num_deleted":"0","num_feature":"13","num_nodes":"15","size_leaf_vector":"0"}},{"base_weights":[8.705165E-2,1.14904895E-1,-1.623783E-2,2.783032E-2,1.6145577E-1,-1.0916891E-1,1.526619E-1,-2.2684362E-2,2.3312967E-1,1.0077014E-2,1.8982767E-1,-9.312169E-3,-2.3282582E-1,-2.875828E-1,2.3353162E-1],"categories":[],"categories_nodes":[],"categories_segments":[],"categories_sizes":[],"default_left":[true,true,true,true,true,true,true,false,false,false,false,false,false,false,false],"id":89,"left_children":[1,3,5,7,9,11,13,-1,-1,-1,-1,-1,-1,-1,-1],"loss_changes":[3.557303E-1,3.8868618E-1,4.404589E-1,3.682605E-1,2.686659E-1,2.2009544E-1,4.231844E-1,0E0,0E0,0E0,0E0,0E0,0E0,0E0,0E0],"parents":[2147483647,0,0,1,1,2,2,3,3,4,4,5,5,6,6],"right_children":[2,4,6,8,10,12,14,-1,-1,-1,-1,-1,-1,-1,-1],"split_conditions":[5E-1,5E-1,5E-1,5E-1,5E-1,5E-1,5E-1,-2.2684361E-4,2.3312967E-3,1.00770136E-4,1.8982766E-3,-9.3121685E-5,-2.328258E-3,-2.8758282E-3,2.3353163E-3],"split_indices":[5,4,3,8,2,4,6,0,0,0,0,0,0,0,0],"split_type":[0,0,0,0,0,0,0,0,0,0,0,0,0,0,0],"sum_hessian":[1.22E2,9.6E1,2.6E1,3.4E1,6.2E1,1.7E1,9E0,2.8E1,6E0,1E1,5.2E1,1E1,7E0,1E0,8E0],"tree_param":{"num_deleted":"0","num_feature":"13","num_nodes":"15","size_leaf_vector":"0"}},{"base_weights":[8.619041E-2,-7.1423136E-2,1.0387316E-1,1.094343E-1,-2.4207726E-1,-1.0748403E-2,1.2918283E-1,2.615872E-1,-1.80632E-1,-5.335467E-2,2.626741E-1,1.8091623E-1,6.7226574E-2],"categories":[],"categories_nodes":[],"categories_segments":[],"categories_sizes":[],"default_left":[true,true,true,true,false,true,true,false,false,false,false,false,false],"id":90,"left_children":[1,3,5,7,-1,9,11,-1,-1,-1,-1,-1,-1],"loss_changes":[3.5022515E-1,4.2772442E-1,3.2340336E-1,3.5619205E-1,0E0,2.5865465E-1,2.7951157E-1,0E0,0E0,0E0,0E0,0E0,0E0],"parents":[2147483647,0,0,1,1,2,2,3,3,5,5,6,6],"right_children":[2,4,6,8,-1,10,12,-1,-1,-1,-1,-1,-1],"split_conditions":[5E-1,5E-1,5E-1,5E-1,-2.4207726E-3,5E-1,5E-1,2.615872E-3,-1.8063199E-3,-5.3354667E-4,2.6267408E-3,1.8091623E-3,6.722657E-4],"split_indices":[1,6,2,5,0,8,0,0,0,0,0,0,0],"split_type":[0,0,0,0,0,0,0,0,0,0,0,0,0],"sum_hessian":[1.22E2,1.2E1,1.1E2,6E0,6E0,2E1,9E1,4E0,2E0,1.8E1,2E0,4.8E1,4.2E1],"tree_param":{"num_deleted":"0","num_feature":"13","num_nodes":"13","size_leaf_vector":"0"}},{"base_weights":[8.5352585E-2,1.1286152E-1,-1.6637014E-2,2.6831383E-2,1.5886459E-1,-1.08237594E-1,1.4990774E-1,-2.3201209E-2,2.302762E-1,1.0355684E-2,1.8668975E-1,-9.526351E-3,-2.3043585E-1,-2.8648105E-1,2.302266E-1],"categories":[],"categories_nodes":[],"categories_segments":[],"categories_sizes":[],"default_left":[true,true,true,true,true,true,true,false,false,false,false,false,false,false,false],"id":91,"left_children":[1,3,5,7,9,11,13,-1,-1,-1,-1,-1,-1,-1,-1],"loss_changes":[3.4696954E-1,3.796295E-1,4.281267E-1,3.6160317E-1,2.5840068E-1,2.1492694E-1,4.1645807E-1,0E0,0E0,0E0,0E0,0E0,0E0,0E0,0E0],"parents":[2147483647,0,0,1,1,2,2,3,3,4,4,5,5,6,6],"right_children":[2,4,6,8,10,12,14,-1,-1,-1,-1,-1,-1,-1,-1],"split_conditions":[5E-1,5E-1,5E-1,5E-1,5E-1,5E-1,5E-1,-2.3201208E-4,2.302762E-3,1.03556835E-4,1.8668975E-3,-9.52635E-5,-2.3043584E-3,-2.8648104E-3,2.302266E-3],"split_indices":[5,4,3,8,2,4,6,0,0,0,0,0,0,0,0],"split_type":[0,0,0,0,0,0,0,0,0,0,0,0,0,0,0],"sum_hessian":[1.22E2,9.6E1,2.6E1,3.4E1,6.2E1,1.7E1,9E0,2.8E1,6E0,1E1,5.2E1,1E1,7E0,1E0,8E0],"tree_param":{"num_deleted":"0","num_feature":"13","num_nodes":"15","size_leaf_vector":"0"}},{"base_weights":[8.4507845E-2,1.11774586E-1,-1.658036E-2,2.6622253E-2,1.5730724E-1,-1.0728853E-1,1.4835238E-1,9.656447E-2,-1.1548071E-1,1.026155E-2,1.848581E-1,-9.439752E-3,-2.2841953E-1,-2.8504863E-1,2.2818013E-1],"categories":[],"categories_nodes":[],"categories_segments":[],"categories_sizes":[],"default_left":[true,true,true,true,true,true,true,false,false,false,false,false,false,false,false],"id":92,"left_children":[1,3,5,7,9,11,13,-1,-1,-1,-1,-1,-1,-1,-1],"loss_changes":[3.4088385E-1,3.7190163E-1,4.198567E-1,3.5901624E-1,2.5333083E-1,2.1118915E-1,4.110167E-1,0E0,0E0,0E0,0E0,0E0,0E0,0E0,0E0],"parents":[2147483647,0,0,1,1,2,2,3,3,4,4,5,5,6,6],"right_children":[2,4,6,8,10,12,14,-1,-1,-1,-1,-1,-1,-1,-1],"split_conditions":[5E-1,5E-1,5E-1,5E-1,5E-1,5E-1,5E-1,9.656447E-4,-1.1548072E-3,1.0261549E-4,